<?xml version="1.0"?>
<MethodSetup Method="BDT::BDTG_200Cuts_Depth4_baggedGrad_1000trees_shrinkage0p1_muon">
  <GeneralInfo>
    <Info name="TMVA Release" value="4.2.1 [262657]"/>
    <Info name="ROOT Release" value="6.10/06 [395782]"/>
    <Info name="Creator" value="wverbeke"/>
    <Info name="Date" value="Wed May 16 19:13:52 2018"/>
    <Info name="Host" value="Linux lcgapp-slc6-x86-64-21.cern.ch 2.6.32-696.3.2.el6.x86_64 #1 SMP Tue Jun 20 09:58:05 CEST 2017 x86_64 x86_64 x86_64 GNU/Linux"/>
    <Info name="Dir" value="/storage_mnt/storage/user/wverbeke/Work/AnalysisCode/ewkino/leptonMvaTraining"/>
    <Info name="Training events" value="13625129"/>
    <Info name="TrainingTime" value="2.48235129e+04"/>
    <Info name="AnalysisType" value="Classification"/>
  </GeneralInfo>
  <Options>
    <Option name="V" modified="Yes">False</Option>
    <Option name="VerbosityLevel" modified="No">Default</Option>
    <Option name="VarTransform" modified="No">None</Option>
    <Option name="H" modified="Yes">False</Option>
    <Option name="CreateMVAPdfs" modified="No">False</Option>
    <Option name="IgnoreNegWeightsInTraining" modified="Yes">True</Option>
    <Option name="NTrees" modified="Yes">1000</Option>
    <Option name="MaxDepth" modified="Yes">4</Option>
    <Option name="MinNodeSize" modified="Yes">2.5%</Option>
    <Option name="nCuts" modified="Yes">200</Option>
    <Option name="BoostType" modified="Yes">Grad</Option>
    <Option name="AdaBoostR2Loss" modified="No">quadratic</Option>
    <Option name="UseBaggedBoost" modified="Yes">True</Option>
    <Option name="Shrinkage" modified="Yes">1.000000e-01</Option>
    <Option name="AdaBoostBeta" modified="No">5.000000e-01</Option>
    <Option name="UseRandomisedTrees" modified="No">False</Option>
    <Option name="UseNvars" modified="No">4</Option>
    <Option name="UsePoissonNvars" modified="No">True</Option>
    <Option name="BaggedSampleFraction" modified="No">6.000000e-01</Option>
    <Option name="UseYesNoLeaf" modified="No">True</Option>
    <Option name="NegWeightTreatment" modified="No">pray</Option>
    <Option name="Css" modified="No">1.000000e+00</Option>
    <Option name="Cts_sb" modified="No">1.000000e+00</Option>
    <Option name="Ctb_ss" modified="No">1.000000e+00</Option>
    <Option name="Cbb" modified="No">1.000000e+00</Option>
    <Option name="NodePurityLimit" modified="No">5.000000e-01</Option>
    <Option name="SeparationType" modified="No">giniindex</Option>
    <Option name="RegressionLossFunctionBDTG" modified="No">huber</Option>
    <Option name="HuberQuantile" modified="No">7.000000e-01</Option>
    <Option name="DoBoostMonitor" modified="Yes">True</Option>
    <Option name="UseFisherCuts" modified="No">False</Option>
    <Option name="MinLinCorrForFisher" modified="No">8.000000e-01</Option>
    <Option name="UseExclusiveVars" modified="No">False</Option>
    <Option name="DoPreselection" modified="No">False</Option>
    <Option name="SigToBkgFraction" modified="No">1.000000e+00</Option>
    <Option name="PruneMethod" modified="No">nopruning</Option>
    <Option name="PruneStrength" modified="No">0.000000e+00</Option>
    <Option name="PruningValFraction" modified="No">5.000000e-01</Option>
    <Option name="SkipNormalization" modified="No">False</Option>
    <Option name="nEventsMin" modified="No">0</Option>
    <Option name="UseBaggedGrad" modified="No">False</Option>
    <Option name="GradBaggingFraction" modified="No">6.000000e-01</Option>
    <Option name="UseNTrainEvents" modified="No">0</Option>
    <Option name="NNodesMax" modified="No">0</Option>
  </Options>
  <Variables NVar="13">
    <Variable VarIndex="0" Expression="pt" Label="pt" Title="pt" Unit="" Internal="pt" Type="F" Min="1.00000019e+01" Max="2.14893555e+03"/>
    <Variable VarIndex="1" Expression="eta" Label="eta" Title="eta" Unit="" Internal="eta" Type="F" Min="2.35717451e-07" Max="2.39999986e+00"/>
    <Variable VarIndex="2" Expression="trackMultClosestJet" Label="trackMultClosestJet" Title="trackMultClosestJet" Unit="" Internal="trackMultClosestJet" Type="F" Min="0.00000000e+00" Max="4.40000000e+01"/>
    <Variable VarIndex="3" Expression="miniIsoCharged" Label="miniIsoCharged" Title="miniIsoCharged" Unit="" Internal="miniIsoCharged" Type="F" Min="0.00000000e+00" Max="3.99999857e-01"/>
    <Variable VarIndex="4" Expression="miniIsoNeutral" Label="miniIsoNeutral" Title="miniIsoNeutral" Unit="" Internal="miniIsoNeutral" Type="F" Min="0.00000000e+00" Max="3.99999738e-01"/>
    <Variable VarIndex="5" Expression="pTRel" Label="pTRel" Title="pTRel" Unit="" Internal="pTRel" Type="F" Min="0.00000000e+00" Max="2.00743054e+03"/>
    <Variable VarIndex="6" Expression="ptRatio" Label="ptRatio" Title="ptRatio" Unit="" Internal="ptRatio" Type="F" Min="9.99994017e-03" Max="1.50000000e+00"/>
    <Variable VarIndex="7" Expression="relIso" Label="relIso" Title="relIso" Unit="" Internal="relIso" Type="F" Min="0.00000000e+00" Max="6.48842392e+01"/>
    <Variable VarIndex="8" Expression="deepCsvClosestJet" Label="deepCsvClosestJet" Title="deepCsvClosestJet" Unit="" Internal="deepCsvClosestJet" Type="F" Min="0.00000000e+00" Max="9.99999881e-01"/>
    <Variable VarIndex="9" Expression="sip3d" Label="sip3d" Title="sip3d" Unit="" Internal="sip3d" Type="F" Min="1.59362498e-05" Max="7.99999428e+00"/>
    <Variable VarIndex="10" Expression="dxy" Label="dxy" Title="dxy" Unit="" Internal="dxy" Type="F" Min="-2.39646282e+01" Max="-2.99586678e+00"/>
    <Variable VarIndex="11" Expression="dz" Label="dz" Title="dz" Unit="" Internal="dz" Type="F" Min="-2.24414253e+01" Max="-2.30258799e+00"/>
    <Variable VarIndex="12" Expression="segmentCompatibility" Label="segmentCompatibility" Title="segmentCompatibility" Unit="" Internal="segmentCompatibility" Type="F" Min="3.03006172e-01" Max="1.00000000e+00"/>
  </Variables>
  <Spectators NSpec="0"/>
  <Classes NClass="2">
    <Class Name="Signal" Index="0"/>
    <Class Name="Background" Index="1"/>
  </Classes>
  <Transformations NTransformations="0"/>
  <MVAPdfs/>
  <Weights NTrees="1000" AnalysisType="1">
    <BinaryTree type="DecisionTree" boostWeight="1.0000000000000000e+00" itree="0">
      <Node pos="s" depth="0" NCoef="0" IVar="6" Cut="8.1184333562850952e-01" cType="1" res="4.4797032023780048e-04" rms="4.9999979138374329e-01" purity="5.0044798851013184e-01" nType="0">
        <Node pos="l" depth="1" NCoef="0" IVar="5" Cut="7.1753931045532227e+00" cType="1" res="-3.6763834953308105e-01" rms="3.3888351917266846e-01" purity="1.3236165046691895e-01" nType="0">
          <Node pos="l" depth="2" NCoef="0" IVar="8" Cut="2.9353231191635132e-01" cType="1" res="-4.2808353900909424e-01" rms="2.5834950804710388e-01" purity="7.1916460990905762e-02" nType="0">
            <Node pos="l" depth="3" NCoef="0" IVar="7" Cut="1.6683986783027649e-01" cType="1" res="-3.1579706072807312e-01" rms="3.8764959573745728e-01" purity="1.8420293927192688e-01" nType="0">
              <Node pos="l" depth="4" NCoef="0" IVar="-1" Cut="0.0000000000000000e+00" cType="1" res="-1.2282066745683551e-03" rms="4.9990183115005493e-01" purity="4.9009272456169128e-01" nType="-99"/>
              <Node pos="r" depth="4" NCoef="0" IVar="-1" Cut="0.0000000000000000e+00" cType="1" res="-3.3304408192634583e-02" rms="3.0949124693870544e-01" purity="1.0729759931564331e-01" nType="-99"/>
            </Node>
            <Node pos="r" depth="3" NCoef="0" IVar="5" Cut="4.3565025329589844e+00" cType="1" res="-4.7980403900146484e-01" rms="1.4067009091377258e-01" purity="2.0195949822664261e-02" nType="0">
              <Node pos="l" depth="4" NCoef="0" IVar="-1" Cut="0.0000000000000000e+00" cType="1" res="-3.8424275815486908e-02" rms="1.0372123867273331e-01" purity="1.0876392014324665e-02" nType="-99"/>
              <Node pos="r" depth="4" NCoef="0" IVar="-1" Cut="0.0000000000000000e+00" cType="1" res="-3.5469248890876770e-02" rms="2.5229051709175110e-01" purity="6.8317830562591553e-02" nType="-99"/>
            </Node>
          </Node>
          <Node pos="r" depth="2" NCoef="0" IVar="4" Cut="1.9892035052180290e-03" cType="1" res="2.0813304185867310e-01" rms="4.5462143421173096e-01" purity="7.0813304185867310e-01" nType="0">
            <Node pos="l" depth="3" NCoef="0" IVar="-1" Cut="0.0000000000000000e+00" cType="1" res="8.3306975662708282e-02" rms="3.3989748358726501e-01" purity="8.6670106649398804e-01" nType="-99"/>
            <Node pos="r" depth="3" NCoef="0" IVar="-1" Cut="0.0000000000000000e+00" cType="1" res="6.1303423717617989e-03" rms="4.9786946177482605e-01" purity="5.4610866308212280e-01" nType="-99"/>
          </Node>
        </Node>
        <Node pos="r" depth="1" NCoef="0" IVar="8" Cut="3.5322749614715576e-01" cType="1" res="4.2397236824035645e-01" rms="2.6504230499267578e-01" purity="9.2397236824035645e-01" nType="0">
          <Node pos="l" depth="2" NCoef="0" IVar="0" Cut="2.3348649978637695e+01" cType="1" res="4.5920526981353760e-01" rms="1.9781439006328583e-01" purity="9.5920526981353760e-01" nType="0">
            <Node pos="l" depth="3" NCoef="0" IVar="0" Cut="1.6906770706176758e+01" cType="1" res="2.8679230809211731e-01" rms="4.0957316756248474e-01" purity="7.8679233789443970e-01" nType="0">
              <Node pos="l" depth="4" NCoef="0" IVar="-1" Cut="0.0000000000000000e+00" cType="1" res="2.5037184357643127e-02" rms="4.7355452179908752e-01" purity="6.6045594215393066e-01" nType="-99"/>
              <Node pos="r" depth="4" NCoef="0" IVar="-1" Cut="0.0000000000000000e+00" cType="1" res="9.7049795091152191e-02" rms="3.0289369821548462e-01" purity="8.9781326055526733e-01" nType="-99"/>
            </Node>
            <Node pos="r" depth="3" NCoef="0" IVar="6" Cut="8.7346971035003662e-01" cType="1" res="4.8352044820785522e-01" rms="1.2731055915355682e-01" purity="9.8352044820785522e-01" nType="0">
              <Node pos="l" depth="4" NCoef="0" IVar="-1" Cut="0.0000000000000000e+00" cType="1" res="8.6495466530323029e-02" rms="3.3148610591888428e-01" purity="8.7432199716567993e-01" nType="-99"/>
              <Node pos="r" depth="4" NCoef="0" IVar="-1" Cut="0.0000000000000000e+00" cType="1" res="1.5438941121101379e-01" rms="9.0497925877571106e-02" purity="9.9174195528030396e-01" nType="-99"/>
            </Node>
          </Node>
          <Node pos="r" depth="2" NCoef="0" IVar="-1" Cut="0.0000000000000000e+00" cType="1" res="-1.1514168232679367e-02" rms="4.8920267820358276e-01" purity="3.9665237069129944e-01" nType="-99"/>
        </Node>
      </Node>
    </BinaryTree>
    <BinaryTree type="DecisionTree" boostWeight="1.0000000000000000e+00" itree="1">
      <Node pos="s" depth="0" NCoef="0" IVar="6" Cut="8.1184333562850952e-01" cType="1" res="-2.2436525672674179e-02" rms="4.6327477693557739e-01" purity="5.0025004148483276e-01" nType="0">
        <Node pos="l" depth="1" NCoef="0" IVar="5" Cut="7.8683471679687500e+00" cType="1" res="-3.5435786843299866e-01" rms="3.3023202419281006e-01" purity="1.3218320906162262e-01" nType="0">
          <Node pos="l" depth="2" NCoef="0" IVar="8" Cut="2.9850742220878601e-01" cType="1" res="-4.0683174133300781e-01" rms="2.6315808296203613e-01" purity="7.6428979635238647e-02" nType="0">
            <Node pos="l" depth="3" NCoef="0" IVar="7" Cut="2.7149045467376709e-01" cType="1" res="-2.9493033885955811e-01" rms="3.9088231325149536e-01" purity="1.9222940504550934e-01" nType="0">
              <Node pos="l" depth="4" NCoef="0" IVar="-1" Cut="0.0000000000000000e+00" cType="1" res="-1.2714406475424767e-02" rms="4.8159128427505493e-01" purity="3.7638407945632935e-01" nType="-99"/>
              <Node pos="r" depth="4" NCoef="0" IVar="-1" Cut="0.0000000000000000e+00" cType="1" res="-3.3424388617277145e-02" rms="2.7336013317108154e-01" purity="8.1696026027202606e-02" nType="-99"/>
            </Node>
            <Node pos="r" depth="3" NCoef="0" IVar="5" Cut="4.4656758308410645e+00" cType="1" res="-4.5966184139251709e-01" rms="1.4529487490653992e-01" purity="2.1758124232292175e-02" nType="0">
              <Node pos="l" depth="4" NCoef="0" IVar="-1" Cut="0.0000000000000000e+00" cType="1" res="-3.6964025348424911e-02" rms="1.0446182638406754e-01" purity="1.1035068891942501e-02" nType="-99"/>
              <Node pos="r" depth="4" NCoef="0" IVar="-1" Cut="0.0000000000000000e+00" cType="1" res="-3.3652428537607193e-02" rms="2.6867088675498962e-01" purity="7.9119823873043060e-02" nType="-99"/>
            </Node>
          </Node>
          <Node pos="r" depth="2" NCoef="0" IVar="-1" Cut="0.0000000000000000e+00" cType="1" res="4.3212909251451492e-02" rms="4.2162808775901794e-01" purity="7.5846815109252930e-01" nType="-99"/>
        </Node>
        <Node pos="r" depth="1" NCoef="0" IVar="8" Cut="3.5322853922843933e-01" cType="1" res="3.6012256145477295e-01" rms="2.5093549489974976e-01" purity="9.2446905374526978e-01" nType="0">
          <Node pos="l" depth="2" NCoef="0" IVar="7" Cut="6.7555278539657593e-02" cType="1" res="3.9006400108337402e-01" rms="1.9181217253208160e-01" purity="9.5904147624969482e-01" nType="0">
            <Node pos="l" depth="3" NCoef="0" IVar="0" Cut="2.3570642471313477e+01" cType="1" res="4.0891674160957336e-01" rms="1.3596995174884796e-01" purity="9.7993361949920654e-01" nType="0">
              <Node pos="l" depth="4" NCoef="0" IVar="-1" Cut="0.0000000000000000e+00" cType="1" res="7.6034210622310638e-02" rms="3.3556023240089417e-01" purity="8.6671221256256104e-01" nType="-99"/>
              <Node pos="r" depth="4" NCoef="0" IVar="-1" Cut="0.0000000000000000e+00" cType="1" res="1.3477545976638794e-01" rms="8.2442857325077057e-02" purity="9.9309837818145752e-01" nType="-99"/>
            </Node>
            <Node pos="r" depth="3" NCoef="0" IVar="-1" Cut="0.0000000000000000e+00" cType="1" res="4.2212732136249542e-02" rms="4.1047441959381104e-01" purity="7.7290815114974976e-01" nType="-99"/>
          </Node>
          <Node pos="r" depth="2" NCoef="0" IVar="-1" Cut="0.0000000000000000e+00" cType="1" res="-1.0427210479974747e-02" rms="4.9012467265129089e-01" purity="4.0111705660820007e-01" nType="-99"/>
        </Node>
      </Node>
    </BinaryTree>
    <BinaryTree type="DecisionTree" boostWeight="1.0000000000000000e+00" itree="2">
      <Node pos="s" depth="0" NCoef="0" IVar="6" Cut="8.0444383621215820e-01" cType="1" res="-4.0635138750076294e-02" rms="4.3302860856056213e-01" purity="4.9960839748382568e-01" nType="0">
        <Node pos="l" depth="1" NCoef="0" IVar="5" Cut="7.1748552322387695e+00" cType="1" res="-3.4470278024673462e-01" rms="3.1947088241577148e-01" purity="1.2827256321907043e-01" nType="0">
          <Node pos="l" depth="2" NCoef="0" IVar="8" Cut="2.9850736260414124e-01" cType="1" res="-3.9723357558250427e-01" rms="2.5005829334259033e-01" purity="6.8985655903816223e-02" nType="0">
            <Node pos="l" depth="3" NCoef="0" IVar="7" Cut="2.7149045467376709e-01" cType="1" res="-2.9709962010383606e-01" rms="3.7710946798324585e-01" purity="1.7637825012207031e-01" nType="0">
              <Node pos="l" depth="4" NCoef="0" IVar="-1" Cut="0.0000000000000000e+00" cType="1" res="-1.4169767498970032e-02" rms="4.7557210922241211e-01" purity="3.5237613320350647e-01" nType="-99"/>
              <Node pos="r" depth="4" NCoef="0" IVar="-1" Cut="0.0000000000000000e+00" cType="1" res="-3.2409287989139557e-02" rms="2.6588824391365051e-01" purity="7.6560445129871368e-02" nType="-99"/>
            </Node>
            <Node pos="r" depth="3" NCoef="0" IVar="5" Cut="4.3201961517333984e+00" cType="1" res="-4.4367349147796631e-01" rms="1.3699391484260559e-01" purity="1.9179349765181541e-02" nType="0">
              <Node pos="l" depth="4" NCoef="0" IVar="-1" Cut="0.0000000000000000e+00" cType="1" res="-3.5700108855962753e-02" rms="1.0100063681602478e-01" purity="1.0307371616363525e-02" nType="-99"/>
              <Node pos="r" depth="4" NCoef="0" IVar="-1" Cut="0.0000000000000000e+00" cType="1" res="-3.3004585653543472e-02" rms="2.4509212374687195e-01" purity="6.4207829535007477e-02" nType="-99"/>
            </Node>
          </Node>
          <Node pos="r" depth="2" NCoef="0" IVar="-1" Cut="0.0000000000000000e+00" cType="1" res="2.8547495603561401e-02" rms="4.4481918215751648e-01" purity="7.0774412155151367e-01" nType="-99"/>
        </Node>
        <Node pos="r" depth="1" NCoef="0" IVar="8" Cut="3.6317926645278931e-01" cType="1" res="3.0295372009277344e-01" rms="2.4808263778686523e-01" purity="9.1920864582061768e-01" nType="0">
          <Node pos="l" depth="2" NCoef="0" IVar="0" Cut="1.6785413742065430e+01" cType="1" res="3.3107006549835205e-01" rms="1.9348920881748199e-01" purity="9.5597791671752930e-01" nType="0">
            <Node pos="l" depth="3" NCoef="0" IVar="-1" Cut="0.0000000000000000e+00" cType="1" res="1.6023160889744759e-02" rms="4.7461107373237610e-01" purity="6.4699339866638184e-01" nType="-99"/>
            <Node pos="r" depth="3" NCoef="0" IVar="3" Cut="1.9861014559864998e-02" cType="1" res="3.4520927071571350e-01" rms="1.4944022893905640e-01" purity="9.7521805763244629e-01" nType="0">
              <Node pos="l" depth="4" NCoef="0" IVar="-1" Cut="0.0000000000000000e+00" cType="1" res="1.1673387885093689e-01" rms="1.1864493042230606e-01" purity="9.8491710424423218e-01" nType="-99"/>
              <Node pos="r" depth="4" NCoef="0" IVar="-1" Cut="0.0000000000000000e+00" cType="1" res="5.1068771630525589e-02" rms="3.5996392369270325e-01" purity="8.3314698934555054e-01" nType="-99"/>
            </Node>
          </Node>
          <Node pos="r" depth="2" NCoef="0" IVar="-1" Cut="0.0000000000000000e+00" cType="1" res="-1.2334106490015984e-02" rms="4.8318725824356079e-01" purity="3.7496861815452576e-01" nType="-99"/>
        </Node>
      </Node>
    </BinaryTree>
    <BinaryTree type="DecisionTree" boostWeight="1.0000000000000000e+00" itree="3">
      <Node pos="s" depth="0" NCoef="0" IVar="6" Cut="7.9638576507568359e-01" cType="1" res="-5.4088991135358810e-02" rms="4.0746247768402100e-01" purity="5.0023424625396729e-01" nType="0">
        <Node pos="l" depth="1" NCoef="0" IVar="5" Cut="8.9678945541381836e+00" cType="1" res="-3.3503645658493042e-01" rms="3.1006261706352234e-01" purity="1.2443616241216660e-01" nType="0">
          <Node pos="l" depth="2" NCoef="0" IVar="8" Cut="3.1343272328376770e-01" cType="1" res="-3.7604662775993347e-01" rms="2.5838825106620789e-01" purity="7.6406404376029968e-02" nType="0">
            <Node pos="l" depth="3" NCoef="0" IVar="7" Cut="2.3462210595607758e-01" cType="1" res="-2.7569338679313660e-01" rms="3.8154599070549011e-01" purity="1.8742474913597107e-01" nType="0">
              <Node pos="l" depth="4" NCoef="0" IVar="-1" Cut="0.0000000000000000e+00" cType="1" res="-8.6944559589028358e-03" rms="4.8570236563682556e-01" purity="4.0706574916839600e-01" nType="-99"/>
              <Node pos="r" depth="4" NCoef="0" IVar="-1" Cut="0.0000000000000000e+00" cType="1" res="-3.0448101460933685e-02" rms="2.8978207707405090e-01" purity="9.5027066767215729e-02" nType="-99"/>
            </Node>
            <Node pos="r" depth="3" NCoef="0" IVar="5" Cut="4.5521306991577148e+00" cType="1" res="-4.2487561702728271e-01" rms="1.4536853134632111e-01" purity="2.2388081997632980e-02" nType="0">
              <Node pos="l" depth="4" NCoef="0" IVar="-1" Cut="0.0000000000000000e+00" cType="1" res="-3.4546293318271637e-02" rms="1.0021519660949707e-01" purity="1.0149846784770489e-02" nType="-99"/>
              <Node pos="r" depth="4" NCoef="0" IVar="-1" Cut="0.0000000000000000e+00" cType="1" res="-3.1357143074274063e-02" rms="2.7984958887100220e-01" purity="8.9207299053668976e-02" nType="-99"/>
            </Node>
          </Node>
          <Node pos="r" depth="2" NCoef="0" IVar="-1" Cut="0.0000000000000000e+00" cType="1" res="5.1801074296236038e-02" rms="3.8454765081405640e-01" purity="8.1207609176635742e-01" nType="-99"/>
        </Node>
        <Node pos="r" depth="1" NCoef="0" IVar="8" Cut="3.7313023209571838e-01" cType="1" res="2.5492003560066223e-01" rms="2.4615252017974854e-01" purity="9.1356772184371948e-01" nType="0">
          <Node pos="l" depth="2" NCoef="0" IVar="7" Cut="9.4283461570739746e-02" cType="1" res="2.8210413455963135e-01" rms="1.9452096521854401e-01" purity="9.5320045948028564e-01" nType="0">
            <Node pos="l" depth="3" NCoef="0" IVar="10" Cut="-5.9542140960693359e+00" cType="1" res="2.9701691865921021e-01" rms="1.4908236265182495e-01" purity="9.7430711984634399e-01" nType="0">
              <Node pos="l" depth="4" NCoef="0" IVar="-1" Cut="0.0000000000000000e+00" cType="1" res="1.0635506361722946e-01" rms="1.2530459463596344e-01" purity="9.8243159055709839e-01" nType="-99"/>
              <Node pos="r" depth="4" NCoef="0" IVar="-1" Cut="0.0000000000000000e+00" cType="1" res="5.1016159355640411e-02" rms="3.2108029723167419e-01" purity="8.6254376173019409e-01" nType="-99"/>
            </Node>
            <Node pos="r" depth="3" NCoef="0" IVar="-1" Cut="0.0000000000000000e+00" cType="1" res="1.3567562215030193e-02" rms="4.5146453380584717e-01" purity="6.7108219861984253e-01" nType="-99"/>
          </Node>
          <Node pos="r" depth="2" NCoef="0" IVar="-1" Cut="0.0000000000000000e+00" cType="1" res="-1.4203172177076340e-02" rms="4.7358483076095581e-01" purity="3.4641262888908386e-01" nType="-99"/>
        </Node>
      </Node>
    </BinaryTree>
    <BinaryTree type="DecisionTree" boostWeight="1.0000000000000000e+00" itree="4">
      <Node pos="s" depth="0" NCoef="0" IVar="6" Cut="7.8964477777481079e-01" cType="1" res="-6.5574735403060913e-02" rms="3.8544481992721558e-01" purity="4.9980095028877258e-01" nType="0">
        <Node pos="l" depth="1" NCoef="0" IVar="5" Cut="8.9672069549560547e+00" cType="1" res="-3.2513123750686646e-01" rms="3.0092653632164001e-01" purity="1.2152796983718872e-01" nType="0">
          <Node pos="l" depth="2" NCoef="0" IVar="8" Cut="3.2338297367095947e-01" cType="1" res="-3.6311686038970947e-01" rms="2.5335416197776794e-01" purity="7.3995433747768402e-02" nType="0">
            <Node pos="l" depth="3" NCoef="0" IVar="7" Cut="2.3462210595607758e-01" cType="1" res="-2.7064582705497742e-01" rms="3.7402647733688354e-01" purity="1.7981472611427307e-01" nType="0">
              <Node pos="l" depth="4" NCoef="0" IVar="-1" Cut="0.0000000000000000e+00" cType="1" res="-9.3370918184518814e-03" rms="4.8304674029350281e-01" purity="3.9508649706840515e-01" nType="-99"/>
              <Node pos="r" depth="4" NCoef="0" IVar="-1" Cut="0.0000000000000000e+00" cType="1" res="-2.9453095048666000e-02" rms="2.8762438893318176e-01" purity="9.3418695032596588e-02" nType="-99"/>
            </Node>
            <Node pos="r" depth="3" NCoef="0" IVar="5" Cut="4.5064883232116699e+00" cType="1" res="-4.0907874703407288e-01" rms="1.4211256802082062e-01" purity="2.1398920565843582e-02" nType="0">
              <Node pos="l" depth="4" NCoef="0" IVar="-1" Cut="0.0000000000000000e+00" cType="1" res="-3.3519078046083450e-02" rms="9.7373396158218384e-02" purity="9.5760505646467209e-03" nType="-99"/>
              <Node pos="r" depth="4" NCoef="0" IVar="-1" Cut="0.0000000000000000e+00" cType="1" res="-3.0501291155815125e-02" rms="2.7258291840553284e-01" purity="8.4172405302524567e-02" nType="-99"/>
            </Node>
          </Node>
          <Node pos="r" depth="2" NCoef="0" IVar="-1" Cut="0.0000000000000000e+00" cType="1" res="4.6985317021608353e-02" rms="3.8532745838165283e-01" purity="8.1111055612564087e-01" nType="-99"/>
        </Node>
        <Node pos="r" depth="1" NCoef="0" IVar="8" Cut="3.8308250904083252e-01" cType="1" res="2.1467152237892151e-01" rms="2.4479602277278900e-01" purity="9.0822696685791016e-01" nType="0">
          <Node pos="l" depth="2" NCoef="0" IVar="0" Cut="1.6674421310424805e+01" cType="1" res="2.4057245254516602e-01" rms="1.9686001539230347e-01" purity="9.4993484020233154e-01" nType="0">
            <Node pos="l" depth="3" NCoef="0" IVar="-1" Cut="0.0000000000000000e+00" cType="1" res="7.3339361697435379e-03" rms="4.7071883082389832e-01" purity="6.2800627946853638e-01" nType="-99"/>
            <Node pos="r" depth="3" NCoef="0" IVar="3" Cut="2.1847115829586983e-02" cType="1" res="2.5289288163185120e-01" rms="1.5662758052349091e-01" purity="9.7053265571594238e-01" nType="0">
              <Node pos="l" depth="4" NCoef="0" IVar="-1" Cut="0.0000000000000000e+00" cType="1" res="9.9001571536064148e-02" rms="1.2559415400028229e-01" purity="9.8256844282150269e-01" nType="-99"/>
              <Node pos="r" depth="4" NCoef="0" IVar="-1" Cut="0.0000000000000000e+00" cType="1" res="3.1438764184713364e-02" rms="3.7893941998481750e-01" purity="7.9109382629394531e-01" nType="-99"/>
            </Node>
          </Node>
          <Node pos="r" depth="2" NCoef="0" IVar="-1" Cut="0.0000000000000000e+00" cType="1" res="-1.5413235872983932e-02" rms="4.6420523524284363e-01" purity="3.2322883605957031e-01" nType="-99"/>
        </Node>
      </Node>
    </BinaryTree>
    <BinaryTree type="DecisionTree" boostWeight="1.0000000000000000e+00" itree="5">
      <Node pos="s" depth="0" NCoef="0" IVar="6" Cut="7.8897929191589355e-01" cType="1" res="-7.4411705136299133e-02" rms="3.6645790934562683e-01" purity="4.9975568056106567e-01" nType="0">
        <Node pos="l" depth="1" NCoef="0" IVar="5" Cut="7.1748552322387695e+00" cType="1" res="-3.1341409683227539e-01" rms="2.9499921202659607e-01" purity="1.2096302956342697e-01" nType="0">
          <Node pos="l" depth="2" NCoef="0" IVar="8" Cut="2.7363181114196777e-01" cType="1" res="-3.5633388161659241e-01" rms="2.3741495609283447e-01" purity="6.3658751547336578e-02" nType="0">
            <Node pos="l" depth="3" NCoef="0" IVar="3" Cut="4.9750197678804398e-02" cType="1" res="-2.6858618855476379e-01" rms="3.6579847335815430e-01" purity="1.6779142618179321e-01" nType="0">
              <Node pos="l" depth="4" NCoef="0" IVar="-1" Cut="0.0000000000000000e+00" cType="1" res="-1.5020932070910931e-02" rms="4.5015424489974976e-01" purity="3.0017498135566711e-01" nType="-99"/>
              <Node pos="r" depth="4" NCoef="0" IVar="-1" Cut="0.0000000000000000e+00" cType="1" res="-2.9960321262478828e-02" rms="2.5858134031295776e-01" purity="7.3785401880741119e-02" nType="-99"/>
            </Node>
            <Node pos="r" depth="3" NCoef="0" IVar="5" Cut="4.3559117317199707e+00" cType="1" res="-3.9299631118774414e-01" rms="1.3945564627647400e-01" purity="2.0150421187281609e-02" nType="0">
              <Node pos="l" depth="4" NCoef="0" IVar="-1" Cut="0.0000000000000000e+00" cType="1" res="-3.2526828348636627e-02" rms="1.0296548902988434e-01" purity="1.0826379992067814e-02" nType="-99"/>
              <Node pos="r" depth="4" NCoef="0" IVar="-1" Cut="0.0000000000000000e+00" cType="1" res="-2.9534066095948219e-02" rms="2.5293383002281189e-01" purity="6.9443747401237488e-02" nType="-99"/>
            </Node>
          </Node>
          <Node pos="r" depth="2" NCoef="0" IVar="-1" Cut="0.0000000000000000e+00" cType="1" res="2.0534327253699303e-02" rms="4.3601125478744507e-01" purity="7.0009434223175049e-01" nType="-99"/>
        </Node>
        <Node pos="r" depth="1" NCoef="0" IVar="8" Cut="3.8308387994766235e-01" cType="1" res="1.8295681476593018e-01" rms="2.3966696858406067e-01" purity="9.0765672922134399e-01" nType="0">
          <Node pos="l" depth="2" NCoef="0" IVar="7" Cut="6.7555278539657593e-02" cType="1" res="2.0625838637351990e-01" rms="1.9503927230834961e-01" purity="9.4963276386260986e-01" nType="0">
            <Node pos="l" depth="3" NCoef="0" IVar="10" Cut="-5.9253511428833008e+00" cType="1" res="2.2096556425094604e-01" rms="1.3804589211940765e-01" purity="9.7765713930130005e-01" nType="0">
              <Node pos="l" depth="4" NCoef="0" IVar="-1" Cut="0.0000000000000000e+00" cType="1" res="9.4665363430976868e-02" rms="1.1689979583024979e-01" purity="9.8476463556289673e-01" nType="-99"/>
              <Node pos="r" depth="4" NCoef="0" IVar="-1" Cut="0.0000000000000000e+00" cType="1" res="4.4745098799467087e-02" rms="3.0637145042419434e-01" purity="8.7398535013198853e-01" nType="-99"/>
            </Node>
            <Node pos="r" depth="3" NCoef="0" IVar="10" Cut="-7.1237225532531738e+00" cType="1" res="9.4257764518260956e-02" rms="4.1038575768470764e-01" purity="7.3621726036071777e-01" nType="0">
              <Node pos="l" depth="4" NCoef="0" IVar="-1" Cut="0.0000000000000000e+00" cType="1" res="4.1030485183000565e-02" rms="3.4982249140739441e-01" purity="8.3235555887222290e-01" nType="-99"/>
              <Node pos="r" depth="4" NCoef="0" IVar="-1" Cut="0.0000000000000000e+00" cType="1" res="1.2144275242462754e-03" rms="4.5028737187385559e-01" purity="6.3405430316925049e-01" nType="-99"/>
            </Node>
          </Node>
          <Node pos="r" depth="2" NCoef="0" IVar="-1" Cut="0.0000000000000000e+00" cType="1" res="-1.4770545996725559e-02" rms="4.6353885531425476e-01" purity="3.2169225811958313e-01" nType="-99"/>
        </Node>
      </Node>
    </BinaryTree>
    <BinaryTree type="DecisionTree" boostWeight="1.0000000000000000e+00" itree="6">
      <Node pos="s" depth="0" NCoef="0" IVar="6" Cut="7.8224521875381470e-01" cType="1" res="-8.0650851130485535e-02" rms="3.5044839978218079e-01" purity="5.0013083219528198e-01" nType="0">
        <Node pos="l" depth="1" NCoef="0" IVar="5" Cut="7.8671240806579590e+00" cType="1" res="-3.0368313193321228e-01" rms="2.8815194964408875e-01" purity="1.1814653873443604e-01" nType="0">
          <Node pos="l" depth="2" NCoef="0" IVar="8" Cut="2.7860686182975769e-01" cType="1" res="-3.4113571047782898e-01" rms="2.3894612491130829e-01" purity="6.5564185380935669e-02" nType="0">
            <Node pos="l" depth="3" NCoef="0" IVar="7" Cut="1.9308289885520935e-01" cType="1" res="-2.5591516494750977e-01" rms="3.6538538336753845e-01" purity="1.6983896493911743e-01" nType="0">
              <Node pos="l" depth="4" NCoef="0" IVar="-1" Cut="0.0000000000000000e+00" cType="1" res="-4.3510207906365395e-03" rms="4.9189102649688721e-01" purity="4.2984196543693542e-01" nType="-99"/>
              <Node pos="r" depth="4" NCoef="0" IVar="-1" Cut="0.0000000000000000e+00" cType="1" res="-2.7345288544893265e-02" rms="2.9709962010383606e-01" purity="1.0022368282079697e-01" nType="-99"/>
            </Node>
            <Node pos="r" depth="3" NCoef="0" IVar="5" Cut="4.4236726760864258e+00" cType="1" res="-3.7739568948745728e-01" rms="1.4205139875411987e-01" purity="2.1196922287344933e-02" nType="0">
              <Node pos="l" depth="4" NCoef="0" IVar="-1" Cut="0.0000000000000000e+00" cType="1" res="-3.1661607325077057e-02" rms="1.0167929530143738e-01" purity="1.0536544024944305e-02" nType="-99"/>
              <Node pos="r" depth="4" NCoef="0" IVar="-1" Cut="0.0000000000000000e+00" cType="1" res="-2.8546513989567757e-02" rms="2.6476246118545532e-01" purity="7.7823080122470856e-02" nType="-99"/>
            </Node>
          </Node>
          <Node pos="r" depth="2" NCoef="0" IVar="-1" Cut="0.0000000000000000e+00" cType="1" res="2.7445189654827118e-02" rms="4.1878122091293335e-01" purity="7.4953156709671021e-01" nType="-99"/>
        </Node>
        <Node pos="r" depth="1" NCoef="0" IVar="7" Cut="1.3231374323368073e-01" cType="1" res="1.5443010628223419e-01" rms="2.3885568976402283e-01" purity="9.0275067090988159e-01" nType="0">
          <Node pos="l" depth="2" NCoef="0" IVar="10" Cut="-5.5692954063415527e+00" cType="1" res="1.7685751616954803e-01" rms="2.0041726529598236e-01" purity="9.3972223997116089e-01" nType="0">
            <Node pos="l" depth="3" NCoef="0" IVar="0" Cut="2.1980449676513672e+01" cType="1" res="1.9011484086513519e-01" rms="1.6781869530677795e-01" purity="9.6291625499725342e-01" nType="0">
              <Node pos="l" depth="4" NCoef="0" IVar="-1" Cut="0.0000000000000000e+00" cType="1" res="3.0683461576700211e-02" rms="3.6908161640167236e-01" purity="8.0179065465927124e-01" nType="-99"/>
              <Node pos="r" depth="4" NCoef="0" IVar="-1" Cut="0.0000000000000000e+00" cType="1" res="8.8947311043739319e-02" rms="1.2349811941385269e-01" purity="9.8161184787750244e-01" nType="-99"/>
            </Node>
            <Node pos="r" depth="3" NCoef="0" IVar="-1" Cut="0.0000000000000000e+00" cType="1" res="-5.3957202471792698e-03" rms="4.3022289872169495e-01" purity="5.6611543893814087e-01" nType="-99"/>
          </Node>
          <Node pos="r" depth="2" NCoef="0" IVar="-1" Cut="0.0000000000000000e+00" cType="1" res="-1.8675789237022400e-02" rms="4.3415033817291260e-01" purity="3.7352949380874634e-01" nType="-99"/>
        </Node>
      </Node>
    </BinaryTree>
    <BinaryTree type="DecisionTree" boostWeight="1.0000000000000000e+00" itree="7">
      <Node pos="s" depth="0" NCoef="0" IVar="6" Cut="8.1924289464950562e-01" cType="1" res="-8.6140125989913940e-02" rms="3.3631938695907593e-01" purity="4.9931374192237854e-01" nType="0">
        <Node pos="l" depth="1" NCoef="0" IVar="5" Cut="7.1741638183593750e+00" cType="1" res="-2.8099808096885681e-01" rms="2.9769352078437805e-01" purity="1.3604773581027985e-01" nType="0">
          <Node pos="l" depth="2" NCoef="0" IVar="8" Cut="2.7860686182975769e-01" cType="1" res="-3.2234525680541992e-01" rms="2.4705742299556732e-01" purity="7.4512541294097900e-02" nType="0">
            <Node pos="l" depth="3" NCoef="0" IVar="7" Cut="2.0162393152713776e-01" cType="1" res="-2.3190182447433472e-01" rms="3.7453156709671021e-01" purity="1.9333811104297638e-01" nType="0">
              <Node pos="l" depth="4" NCoef="0" IVar="-1" Cut="0.0000000000000000e+00" cType="1" res="-3.9579551666975021e-03" rms="4.8515817523002625e-01" purity="4.5742055773735046e-01" nType="-99"/>
              <Node pos="r" depth="4" NCoef="0" IVar="-1" Cut="0.0000000000000000e+00" cType="1" res="-2.6615675538778305e-02" rms="2.9486212134361267e-01" purity="9.8810426890850067e-02" nType="-99"/>
            </Node>
            <Node pos="r" depth="3" NCoef="0" IVar="8" Cut="4.9394911527633667e-01" cType="1" res="-3.6241477727890015e-01" rms="1.4388647675514221e-01" purity="2.1868791431188583e-02" nType="0">
              <Node pos="l" depth="4" NCoef="0" IVar="-1" Cut="0.0000000000000000e+00" cType="1" res="-2.7823960408568382e-02" rms="2.4660554528236389e-01" purity="6.8147711455821991e-02" nType="-99"/>
              <Node pos="r" depth="4" NCoef="0" IVar="-1" Cut="0.0000000000000000e+00" cType="1" res="-3.0915681272745132e-02" rms="1.0570727288722992e-01" purity="1.1424152180552483e-02" nType="-99"/>
            </Node>
          </Node>
          <Node pos="r" depth="2" NCoef="0" IVar="9" Cut="1.0762923955917358e+00" cType="1" res="1.0750427842140198e-01" rms="4.2521363496780396e-01" purity="7.1423906087875366e-01" nType="0">
            <Node pos="l" depth="3" NCoef="0" IVar="-1" Cut="0.0000000000000000e+00" cType="1" res="5.7901721447706223e-02" rms="3.2760179042816162e-01" purity="8.6165732145309448e-01" nType="-99"/>
            <Node pos="r" depth="3" NCoef="0" IVar="-1" Cut="0.0000000000000000e+00" cType="1" res="-4.2784251272678375e-03" rms="4.6726122498512268e-01" purity="5.6364679336547852e-01" nType="-99"/>
          </Node>
        </Node>
        <Node pos="r" depth="1" NCoef="0" IVar="7" Cut="9.4283461570739746e-02" cType="1" res="1.4418563246726990e-01" rms="2.1006378531455994e-01" purity="9.2870104312896729e-01" nType="0">
          <Node pos="l" depth="2" NCoef="0" IVar="10" Cut="-5.7355465888977051e+00" cType="1" res="1.6045388579368591e-01" rms="1.6977632045745850e-01" purity="9.5938587188720703e-01" nType="0">
            <Node pos="l" depth="3" NCoef="0" IVar="6" Cut="8.9036679267883301e-01" cType="1" res="1.6755731403827667e-01" rms="1.3801360130310059e-01" purity="9.7696584463119507e-01" nType="0">
              <Node pos="l" depth="4" NCoef="0" IVar="-1" Cut="0.0000000000000000e+00" cType="1" res="4.3863721191883087e-02" rms="2.8120046854019165e-01" purity="8.9356088638305664e-01" nType="-99"/>
              <Node pos="r" depth="4" NCoef="0" IVar="-1" Cut="0.0000000000000000e+00" cType="1" res="8.6488395929336548e-02" rms="1.1622835695743561e-01" purity="9.8450529575347900e-01" nType="-99"/>
            </Node>
            <Node pos="r" depth="3" NCoef="0" IVar="-1" Cut="0.0000000000000000e+00" cType="1" res="1.1028071865439415e-02" rms="3.9745187759399414e-01" purity="7.0717757940292358e-01" nType="-99"/>
          </Node>
          <Node pos="r" depth="2" NCoef="0" IVar="-1" Cut="0.0000000000000000e+00" cType="1" res="-8.4013398736715317e-03" rms="4.3718755245208740e-01" purity="5.4374706745147705e-01" nType="-99"/>
        </Node>
      </Node>
    </BinaryTree>
    <BinaryTree type="DecisionTree" boostWeight="1.0000000000000000e+00" itree="8">
      <Node pos="s" depth="0" NCoef="0" IVar="6" Cut="7.7416640520095825e-01" cType="1" res="-8.9325480163097382e-02" rms="3.2392656803131104e-01" purity="5.0022393465042114e-01" nType="0">
        <Node pos="l" depth="1" NCoef="0" IVar="5" Cut="8.9678945541381836e+00" cType="1" res="-2.8365695476531982e-01" rms="2.7659583091735840e-01" purity="1.1524427682161331e-01" nType="0">
          <Node pos="l" depth="2" NCoef="0" IVar="8" Cut="3.3333322405815125e-01" cType="1" res="-3.1376475095748901e-01" rms="2.3942902684211731e-01" purity="6.8691559135913849e-02" nType="0">
            <Node pos="l" depth="3" NCoef="0" IVar="5" Cut="4.4640188217163086e+00" cType="1" res="-2.3909124732017517e-01" rms="3.5604330897331238e-01" purity="1.6640459001064301e-01" nType="0">
              <Node pos="l" depth="4" NCoef="0" IVar="-1" Cut="0.0000000000000000e+00" cType="1" res="-2.5555105879902840e-02" rms="3.0620905756950378e-01" purity="1.1241016536951065e-01" nType="-99"/>
              <Node pos="r" depth="4" NCoef="0" IVar="-1" Cut="0.0000000000000000e+00" cType="1" res="-2.4403603747487068e-03" rms="4.7152552008628845e-01" purity="4.1764229536056519e-01" nType="-99"/>
            </Node>
            <Node pos="r" depth="3" NCoef="0" IVar="5" Cut="4.4183101654052734e+00" cType="1" res="-3.5105884075164795e-01" rms="1.3590413331985474e-01" purity="1.9890896975994110e-02" nType="0">
              <Node pos="l" depth="4" NCoef="0" IVar="-1" Cut="0.0000000000000000e+00" cType="1" res="-3.0221119523048401e-02" rms="9.2103280127048492e-02" purity="8.5657984018325806e-03" nType="-99"/>
              <Node pos="r" depth="4" NCoef="0" IVar="-1" Cut="0.0000000000000000e+00" cType="1" res="-2.7734356001019478e-02" rms="2.5959691405296326e-01" purity="7.6975286006927490e-02" nType="-99"/>
            </Node>
          </Node>
          <Node pos="r" depth="2" NCoef="0" IVar="-1" Cut="0.0000000000000000e+00" cType="1" res="3.5676591098308563e-02" rms="3.8439673185348511e-01" purity="8.0758422613143921e-01" nType="-99"/>
        </Node>
        <Node pos="r" depth="1" NCoef="0" IVar="8" Cut="4.0298444032669067e-01" cType="1" res="1.1029586195945740e-01" rms="2.3555023968219757e-01" purity="8.9568305015563965e-01" nType="0">
          <Node pos="l" depth="2" NCoef="0" IVar="3" Cut="3.1836878508329391e-02" cType="1" res="1.3272821903228760e-01" rms="1.9742234051227570e-01" purity="9.4291371107101440e-01" nType="0">
            <Node pos="l" depth="3" NCoef="0" IVar="0" Cut="2.3348649978637695e+01" cType="1" res="1.4216771721839905e-01" rms="1.6922816634178162e-01" purity="9.6249246597290039e-01" nType="0">
              <Node pos="l" depth="4" NCoef="0" IVar="-1" Cut="0.0000000000000000e+00" cType="1" res="2.1801104769110680e-02" rms="3.6879530549049377e-01" purity="7.9942345619201660e-01" nType="-99"/>
              <Node pos="r" depth="4" NCoef="0" IVar="-1" Cut="0.0000000000000000e+00" cType="1" res="8.3600074052810669e-02" rms="1.1607790738344193e-01" purity="9.8490911722183228e-01" nType="-99"/>
            </Node>
            <Node pos="r" depth="3" NCoef="0" IVar="-1" Cut="0.0000000000000000e+00" cType="1" res="-4.1572521440684795e-03" rms="4.3131509423255920e-01" purity="6.1389768123626709e-01" nType="-99"/>
          </Node>
          <Node pos="r" depth="2" NCoef="0" IVar="-1" Cut="0.0000000000000000e+00" cType="1" res="-1.8518581986427307e-02" rms="4.2293035984039307e-01" purity="2.7570003271102905e-01" nType="-99"/>
        </Node>
      </Node>
    </BinaryTree>
    <BinaryTree type="DecisionTree" boostWeight="1.0000000000000000e+00" itree="9">
      <Node pos="s" depth="0" NCoef="0" IVar="6" Cut="7.6778692007064819e-01" cType="1" res="-9.2294804751873016e-02" rms="3.1296810507774353e-01" purity="4.9982669949531555e-01" nType="0">
        <Node pos="l" depth="1" NCoef="0" IVar="5" Cut="1.0237303733825684e+01" cType="1" res="-2.7476817369461060e-01" rms="2.7034699916839600e-01" purity="1.1284354329109192e-01" nType="0">
          <Node pos="l" depth="2" NCoef="0" IVar="8" Cut="3.5820892453193665e-01" cType="1" res="-3.0030080676078796e-01" rms="2.4084270000457764e-01" purity="7.2326473891735077e-02" nType="0">
            <Node pos="l" depth="3" NCoef="0" IVar="5" Cut="4.8416857719421387e+00" cType="1" res="-2.2934962809085846e-01" rms="3.5190609097480774e-01" purity="1.6828009486198425e-01" nType="0">
              <Node pos="l" depth="4" NCoef="0" IVar="-1" Cut="0.0000000000000000e+00" cType="1" res="-2.4769544601440430e-02" rms="3.0467414855957031e-01" purity="1.1101884394884109e-01" nType="-99"/>
              <Node pos="r" depth="4" NCoef="0" IVar="-1" Cut="0.0000000000000000e+00" cType="1" res="1.6261759446933866e-03" rms="4.7108775377273560e-01" purity="4.7765198349952698e-01" nType="-99"/>
            </Node>
            <Node pos="r" depth="3" NCoef="0" IVar="9" Cut="2.2288882732391357e+00" cType="1" res="-3.3842137455940247e-01" rms="1.3592940568923950e-01" purity="2.0772607997059822e-02" nType="0">
              <Node pos="l" depth="4" NCoef="0" IVar="-1" Cut="0.0000000000000000e+00" cType="1" res="-2.7667880058288574e-02" rms="2.0328025519847870e-01" purity="4.9992632120847702e-02" nType="-99"/>
              <Node pos="r" depth="4" NCoef="0" IVar="-1" Cut="0.0000000000000000e+00" cType="1" res="-2.9846807941794395e-02" rms="9.5149278640747070e-02" purity="9.1704046353697777e-03" nType="-99"/>
            </Node>
          </Node>
          <Node pos="r" depth="2" NCoef="0" IVar="-1" Cut="0.0000000000000000e+00" cType="1" res="4.6820160001516342e-02" rms="3.4517076611518860e-01" purity="8.5301762819290161e-01" nType="-99"/>
        </Node>
        <Node pos="r" depth="1" NCoef="0" IVar="8" Cut="4.1293478012084961e-01" cType="1" res="9.1416902840137482e-02" rms="2.3602290451526642e-01" purity="8.8943606615066528e-01" nType="0">
          <Node pos="l" depth="2" NCoef="0" IVar="3" Cut="3.3814880996942520e-02" cType="1" res="1.1350621283054352e-01" rms="2.0028974115848541e-01" purity="9.3910491466522217e-01" nType="0">
            <Node pos="l" depth="3" NCoef="0" IVar="4" Cut="3.3819936215877533e-02" cType="1" res="1.2272601574659348e-01" rms="1.7257735133171082e-01" purity="9.6027791500091553e-01" nType="0">
              <Node pos="l" depth="4" NCoef="0" IVar="-1" Cut="0.0000000000000000e+00" cType="1" res="7.0603400468826294e-02" rms="1.5040524303913116e-01" purity="9.7148251533508301e-01" nType="-99"/>
              <Node pos="r" depth="4" NCoef="0" IVar="-1" Cut="0.0000000000000000e+00" cType="1" res="1.1843385174870491e-02" rms="3.7548068165779114e-01" purity="7.7729713916778564e-01" nType="-99"/>
            </Node>
            <Node pos="r" depth="3" NCoef="0" IVar="-1" Cut="0.0000000000000000e+00" cType="1" res="-6.5579321235418320e-03" rms="4.3568062782287598e-01" purity="5.7901591062545776e-01" nType="-99"/>
          </Node>
          <Node pos="r" depth="2" NCoef="0" IVar="-1" Cut="0.0000000000000000e+00" cType="1" res="-1.8952032551169395e-02" rms="4.1109123826026917e-01" purity="2.5526633858680725e-01" nType="-99"/>
        </Node>
      </Node>
    </BinaryTree>
    <BinaryTree type="DecisionTree" boostWeight="1.0000000000000000e+00" itree="10">
      <Node pos="s" depth="0" NCoef="0" IVar="6" Cut="8.2601165771484375e-01" cType="1" res="-9.3860097229480743e-02" rms="3.0345365405082703e-01" purity="4.9981147050857544e-01" nType="0">
        <Node pos="l" depth="1" NCoef="0" IVar="5" Cut="6.2953267097473145e+00" cType="1" res="-2.5029239058494568e-01" rms="2.8573572635650635e-01" purity="1.4020965993404388e-01" nType="0">
          <Node pos="l" depth="2" NCoef="0" IVar="8" Cut="2.4378104507923126e-01" cType="1" res="-2.9101270437240601e-01" rms="2.3477858304977417e-01" purity="7.0897869765758514e-02" nType="0">
            <Node pos="l" depth="3" NCoef="0" IVar="7" Cut="2.7149045467376709e-01" cType="1" res="-2.0954519510269165e-01" rms="3.6490055918693542e-01" purity="1.9284066557884216e-01" nType="0">
              <Node pos="l" depth="4" NCoef="0" IVar="-1" Cut="0.0000000000000000e+00" cType="1" res="-9.6672512590885162e-03" rms="4.6013838052749634e-01" purity="3.8119488954544067e-01" nType="-99"/>
              <Node pos="r" depth="4" NCoef="0" IVar="-1" Cut="0.0000000000000000e+00" cType="1" res="-2.5727458298206329e-02" rms="2.6119706034660339e-01" purity="7.5036898255348206e-02" nType="-99"/>
            </Node>
            <Node pos="r" depth="3" NCoef="0" IVar="8" Cut="5.2971512079238892e-01" cType="1" res="-3.2321879267692566e-01" rms="1.4356961846351624e-01" purity="2.2690854966640472e-02" nType="0">
              <Node pos="l" depth="4" NCoef="0" IVar="-1" Cut="0.0000000000000000e+00" cType="1" res="-2.6324324309825897e-02" rms="2.3752555251121521e-01" purity="6.5827570855617523e-02" nType="-99"/>
              <Node pos="r" depth="4" NCoef="0" IVar="-1" Cut="0.0000000000000000e+00" cType="1" res="-2.9037294909358025e-02" rms="9.4052404165267944e-02" purity="8.9939525350928307e-03" nType="-99"/>
            </Node>
          </Node>
          <Node pos="r" depth="2" NCoef="0" IVar="3" Cut="1.5916626900434494e-02" cType="1" res="4.1119832545518875e-02" rms="4.1794046759605408e-01" purity="6.3623523712158203e-01" nType="0">
            <Node pos="l" depth="3" NCoef="0" IVar="-1" Cut="0.0000000000000000e+00" cType="1" res="4.6601869165897369e-02" rms="3.2409027218818665e-01" purity="8.3578813076019287e-01" nType="-99"/>
            <Node pos="r" depth="3" NCoef="0" IVar="-1" Cut="0.0000000000000000e+00" cType="1" res="-1.8077950924634933e-02" rms="4.4144338369369507e-01" purity="3.8227239251136780e-01" nType="-99"/>
          </Node>
        </Node>
        <Node pos="r" depth="1" NCoef="0" IVar="0" Cut="1.6674415588378906e+01" cType="1" res="9.4472363591194153e-02" rms="1.9930310547351837e-01" purity="9.3274438381195068e-01" nType="0">
          <Node pos="l" depth="2" NCoef="0" IVar="-1" Cut="0.0000000000000000e+00" cType="1" res="-1.2306271120905876e-02" rms="4.4290551543235779e-01" purity="5.3719884157180786e-01" nType="-99"/>
          <Node pos="r" depth="2" NCoef="0" IVar="7" Cut="8.4097914397716522e-02" cType="1" res="1.0796017199754715e-01" rms="1.5939086675643921e-01" purity="9.6233212947845459e-01" nType="0">
            <Node pos="l" depth="3" NCoef="0" IVar="6" Cut="9.0648788213729858e-01" cType="1" res="1.1377088725566864e-01" rms="1.2701885402202606e-01" purity="9.8029148578643799e-01" nType="0">
              <Node pos="l" depth="4" NCoef="0" IVar="-1" Cut="0.0000000000000000e+00" cType="1" res="3.7459153681993484e-02" rms="2.5339937210083008e-01" purity="9.0733820199966431e-01" nType="-99"/>
              <Node pos="r" depth="4" NCoef="0" IVar="-1" Cut="0.0000000000000000e+00" cType="1" res="8.2062184810638428e-02" rms="1.0190650075674057e-01" purity="9.8890781402587891e-01" nType="-99"/>
            </Node>
            <Node pos="r" depth="3" NCoef="0" IVar="-1" Cut="0.0000000000000000e+00" cType="1" res="4.8210062086582184e-03" rms="3.8822197914123535e-01" purity="7.0526760816574097e-01" nType="-99"/>
          </Node>
        </Node>
      </Node>
    </BinaryTree>
    <BinaryTree type="DecisionTree" boostWeight="1.0000000000000000e+00" itree="11">
      <Node pos="s" depth="0" NCoef="0" IVar="6" Cut="7.6744616031646729e-01" cType="1" res="-9.5114380121231079e-02" rms="2.9442307353019714e-01" purity="4.9964559078216553e-01" nType="0">
        <Node pos="l" depth="1" NCoef="0" IVar="5" Cut="8.9672069549560547e+00" cType="1" res="-2.5518047809600830e-01" rms="2.6237767934799194e-01" purity="1.1227903515100479e-01" nType="0">
          <Node pos="l" depth="2" NCoef="0" IVar="8" Cut="3.0845764279365540e-01" cType="1" res="-2.7999073266983032e-01" rms="2.3239053785800934e-01" purity="6.6314354538917542e-02" nType="0">
            <Node pos="l" depth="3" NCoef="0" IVar="3" Cut="4.1790168732404709e-02" cType="1" res="-2.1220719814300537e-01" rms="3.5081964731216431e-01" purity="1.6483461856842041e-01" nType="0">
              <Node pos="l" depth="4" NCoef="0" IVar="-1" Cut="0.0000000000000000e+00" cType="1" res="-1.0521196760237217e-02" rms="4.3646344542503357e-01" purity="3.0223414301872253e-01" nType="-99"/>
              <Node pos="r" depth="4" NCoef="0" IVar="-1" Cut="0.0000000000000000e+00" cType="1" res="-2.5691358372569084e-02" rms="2.5842025876045227e-01" purity="7.7695004642009735e-02" nType="-99"/>
            </Node>
            <Node pos="r" depth="3" NCoef="0" IVar="9" Cut="2.4676678180694580e+00" cType="1" res="-3.1129413843154907e-01" rms="1.3786414265632629e-01" purity="2.0816283300518990e-02" nType="0">
              <Node pos="l" depth="4" NCoef="0" IVar="-1" Cut="0.0000000000000000e+00" cType="1" res="-2.6332849636673927e-02" rms="2.0096476376056671e-01" purity="4.6369623392820358e-02" nType="-99"/>
              <Node pos="r" depth="4" NCoef="0" IVar="-1" Cut="0.0000000000000000e+00" cType="1" res="-2.8566706925630569e-02" rms="9.2957131564617157e-02" purity="8.8325375691056252e-03" nType="-99"/>
            </Node>
          </Node>
          <Node pos="r" depth="2" NCoef="0" IVar="-1" Cut="0.0000000000000000e+00" cType="1" res="2.6785245165228844e-02" rms="3.7879720330238342e-01" purity="8.0361497402191162e-01" nType="-99"/>
        </Node>
        <Node pos="r" depth="1" NCoef="0" IVar="8" Cut="4.1790977120399475e-01" cType="1" res="6.5882749855518341e-02" rms="2.3008993268013000e-01" purity="8.8926535844802856e-01" nType="0">
          <Node pos="l" depth="2" NCoef="0" IVar="0" Cut="1.6674415588378906e+01" cType="1" res="8.5710026323795319e-02" rms="1.9799481332302094e-01" purity="9.3902873992919922e-01" nType="0">
            <Node pos="l" depth="3" NCoef="0" IVar="-1" Cut="0.0000000000000000e+00" cType="1" res="-5.9792241081595421e-03" rms="4.5304200053215027e-01" purity="6.0174596309661865e-01" nType="-99"/>
            <Node pos="r" depth="3" NCoef="0" IVar="4" Cut="2.5759641081094742e-02" cType="1" res="9.4317302107810974e-02" rms="1.6277161240577698e-01" purity="9.6253067255020142e-01" nType="0">
              <Node pos="l" depth="4" NCoef="0" IVar="-1" Cut="0.0000000000000000e+00" cType="1" res="6.8284042179584503e-02" rms="1.3541479408740997e-01" purity="9.7657942771911621e-01" nType="-99"/>
              <Node pos="r" depth="4" NCoef="0" IVar="-1" Cut="0.0000000000000000e+00" cType="1" res="9.0115591883659363e-03" rms="3.5410636663436890e-01" purity="7.8561514616012573e-01" nType="-99"/>
            </Node>
          </Node>
          <Node pos="r" depth="2" NCoef="0" IVar="-1" Cut="0.0000000000000000e+00" cType="1" res="-1.8869791179895401e-02" rms="3.9930516481399536e-01" purity="2.5108572840690613e-01" nType="-99"/>
        </Node>
      </Node>
    </BinaryTree>
    <BinaryTree type="DecisionTree" boostWeight="1.0000000000000000e+00" itree="12">
      <Node pos="s" depth="0" NCoef="0" IVar="6" Cut="8.3341813087463379e-01" cType="1" res="-9.4864659011363983e-02" rms="2.8715169429779053e-01" purity="5.0013405084609985e-01" nType="0">
        <Node pos="l" depth="1" NCoef="0" IVar="5" Cut="5.3823986053466797e+00" cType="1" res="-2.3074479401111603e-01" rms="2.8053557872772217e-01" purity="1.4504539966583252e-01" nType="0">
          <Node pos="l" depth="2" NCoef="0" IVar="2" Cut="1.1194030046463013e+00" cType="1" res="-2.7415397763252258e-01" rms="2.2356860339641571e-01" purity="6.6016040742397308e-02" nType="0">
            <Node pos="l" depth="3" NCoef="0" IVar="-1" Cut="0.0000000000000000e+00" cType="1" res="-1.7161972820758820e-02" rms="3.7168666720390320e-01" purity="2.1976986527442932e-01" nType="-99"/>
            <Node pos="r" depth="3" NCoef="0" IVar="8" Cut="1.9402982294559479e-01" cType="1" res="-2.9383969306945801e-01" rms="1.7772354185581207e-01" purity="3.8367461413145065e-02" nType="0">
              <Node pos="l" depth="4" NCoef="0" IVar="-1" Cut="0.0000000000000000e+00" cType="1" res="-2.3144645616412163e-02" rms="3.0724206566810608e-01" purity="1.2493430078029633e-01" nType="-99"/>
              <Node pos="r" depth="4" NCoef="0" IVar="-1" Cut="0.0000000000000000e+00" cType="1" res="-2.7800858020782471e-02" rms="1.1882116645574570e-01" purity="1.5414074063301086e-02" nType="-99"/>
            </Node>
          </Node>
          <Node pos="r" depth="2" NCoef="0" IVar="3" Cut="3.7800896912813187e-02" cType="1" res="-1.4927104115486145e-02" rms="4.0685173869132996e-01" purity="5.3795605897903442e-01" nType="0">
            <Node pos="l" depth="3" NCoef="0" IVar="9" Cut="1.1541697978973389e+00" cType="1" res="1.1992399394512177e-01" rms="3.6297532916069031e-01" purity="7.3877698183059692e-01" nType="0">
              <Node pos="l" depth="4" NCoef="0" IVar="-1" Cut="0.0000000000000000e+00" cType="1" res="5.8687478303909302e-02" rms="2.9013153910636902e-01" purity="8.7933242321014404e-01" nType="-99"/>
              <Node pos="r" depth="4" NCoef="0" IVar="-1" Cut="0.0000000000000000e+00" cType="1" res="2.0017737988382578e-03" rms="4.0866881608963013e-01" purity="5.7239943742752075e-01" nType="-99"/>
            </Node>
            <Node pos="r" depth="3" NCoef="0" IVar="-1" Cut="0.0000000000000000e+00" cType="1" res="-2.2522695362567902e-02" rms="3.8464587926864624e-01" purity="2.3647396266460419e-01" nType="-99"/>
          </Node>
        </Node>
        <Node pos="r" depth="1" NCoef="0" IVar="10" Cut="-5.5802445411682129e+00" cType="1" res="7.2295807301998138e-02" rms="1.9084082543849945e-01" purity="9.3696600198745728e-01" nType="0">
          <Node pos="l" depth="2" NCoef="0" IVar="3" Cut="2.1887853741645813e-02" cType="1" res="8.2510761916637421e-02" rms="1.6273730993270874e-01" purity="9.6148997545242310e-01" nType="0">
            <Node pos="l" depth="3" NCoef="0" IVar="0" Cut="3.0022962570190430e+01" cType="1" res="8.6301460862159729e-02" rms="1.4008222520351410e-01" purity="9.7463661432266235e-01" nType="0">
              <Node pos="l" depth="4" NCoef="0" IVar="-1" Cut="0.0000000000000000e+00" cType="1" res="3.0156280845403671e-02" rms="2.7505716681480408e-01" purity="8.9387494325637817e-01" nType="-99"/>
              <Node pos="r" depth="4" NCoef="0" IVar="-1" Cut="0.0000000000000000e+00" cType="1" res="8.0920010805130005e-02" rms="8.3552502095699310e-02" purity="9.9281483888626099e-01" nType="-99"/>
            </Node>
            <Node pos="r" depth="3" NCoef="0" IVar="-1" Cut="0.0000000000000000e+00" cType="1" res="5.9718624688684940e-03" rms="3.5547974705696106e-01" purity="7.6341837644577026e-01" nType="-99"/>
          </Node>
          <Node pos="r" depth="2" NCoef="0" IVar="-1" Cut="0.0000000000000000e+00" cType="1" res="-1.3369998894631863e-02" rms="4.0515175461769104e-01" purity="5.5537915229797363e-01" nType="-99"/>
        </Node>
      </Node>
    </BinaryTree>
    <BinaryTree type="DecisionTree" boostWeight="1.0000000000000000e+00" itree="13">
      <Node pos="s" depth="0" NCoef="0" IVar="6" Cut="7.5935345888137817e-01" cType="1" res="-9.4689421355724335e-02" rms="2.8013423085212708e-01" purity="5.0035542249679565e-01" nType="0">
        <Node pos="l" depth="1" NCoef="0" IVar="5" Cut="8.9678945541381836e+00" cType="1" res="-2.3779784142971039e-01" rms="2.5414884090423584e-01" purity="1.1012413352727890e-01" nType="0">
          <Node pos="l" depth="2" NCoef="0" IVar="8" Cut="3.4825867414474487e-01" cType="1" res="-2.5990578532218933e-01" rms="2.2749058902263641e-01" purity="6.4548082649707794e-02" nType="0">
            <Node pos="l" depth="3" NCoef="0" IVar="5" Cut="4.3299260139465332e+00" cType="1" res="-2.0077276229858398e-01" rms="3.3923426270484924e-01" purity="1.5481035411357880e-01" nType="0">
              <Node pos="l" depth="4" NCoef="0" IVar="-1" Cut="0.0000000000000000e+00" cType="1" res="-2.2741988301277161e-02" rms="2.9241052269935608e-01" purity="1.0210088640451431e-01" nType="-99"/>
              <Node pos="r" depth="4" NCoef="0" IVar="-1" Cut="0.0000000000000000e+00" cType="1" res="-3.1471920665353537e-03" rms="4.5493623614311218e-01" purity="3.8495934009552002e-01" nType="-99"/>
            </Node>
            <Node pos="r" depth="3" NCoef="0" IVar="9" Cut="2.4682886600494385e+00" cType="1" res="-2.9017850756645203e-01" rms="1.2893858551979065e-01" purity="1.8338987603783607e-02" nType="0">
              <Node pos="l" depth="4" NCoef="0" IVar="-1" Cut="0.0000000000000000e+00" cType="1" res="-2.5515163317322731e-02" rms="1.9004666805267334e-01" purity="4.1918303817510605e-02" nType="-99"/>
              <Node pos="r" depth="4" NCoef="0" IVar="-1" Cut="0.0000000000000000e+00" cType="1" res="-2.7602594345808029e-02" rms="8.7705224752426147e-02" purity="7.8307213261723518e-03" nType="-99"/>
            </Node>
          </Node>
          <Node pos="r" depth="2" NCoef="0" IVar="-1" Cut="0.0000000000000000e+00" cType="1" res="2.3018909618258476e-02" rms="3.7331217527389526e-01" purity="8.0360424518585205e-01" nType="-99"/>
        </Node>
        <Node pos="r" depth="1" NCoef="0" IVar="8" Cut="4.2786014080047607e-01" cType="1" res="4.5078400522470474e-02" rms="2.2912368178367615e-01" purity="8.8147747516632080e-01" nType="0">
          <Node pos="l" depth="2" NCoef="0" IVar="3" Cut="3.5816486924886703e-02" cType="1" res="6.4186446368694305e-02" rms="2.0039351284503937e-01" purity="9.3422991037368774e-01" nType="0">
            <Node pos="l" depth="3" NCoef="0" IVar="10" Cut="-5.8125801086425781e+00" cType="1" res="7.2152644395828247e-02" rms="1.7431898415088654e-01" purity="9.5758455991744995e-01" nType="0">
              <Node pos="l" depth="4" NCoef="0" IVar="-1" Cut="0.0000000000000000e+00" cType="1" res="5.7751383632421494e-02" rms="1.5417227149009705e-01" purity="9.6955484151840210e-01" nType="-99"/>
              <Node pos="r" depth="4" NCoef="0" IVar="-1" Cut="0.0000000000000000e+00" cType="1" res="-1.8019990238826722e-04" rms="3.5754489898681641e-01" purity="7.7110403776168823e-01" nType="-99"/>
            </Node>
            <Node pos="r" depth="3" NCoef="0" IVar="-1" Cut="0.0000000000000000e+00" cType="1" res="-1.0226470418274403e-02" rms="4.3064716458320618e-01" purity="5.4146164655685425e-01" nType="-99"/>
          </Node>
          <Node pos="r" depth="2" NCoef="0" IVar="-1" Cut="0.0000000000000000e+00" cType="1" res="-1.9150817766785622e-02" rms="3.8033479452133179e-01" purity="2.3079620301723480e-01" nType="-99"/>
        </Node>
      </Node>
    </BinaryTree>
    <BinaryTree type="DecisionTree" boostWeight="1.0000000000000000e+00" itree="14">
      <Node pos="s" depth="0" NCoef="0" IVar="6" Cut="8.3341813087463379e-01" cType="1" res="-9.4128057360649109e-02" rms="2.7418079972267151e-01" purity="4.9954915046691895e-01" nType="0">
        <Node pos="l" depth="1" NCoef="0" IVar="5" Cut="6.1618657112121582e+00" cType="1" res="-2.1464355289936066e-01" rms="2.7349981665611267e-01" purity="1.4480799436569214e-01" nType="0">
          <Node pos="l" depth="2" NCoef="0" IVar="8" Cut="2.4378104507923126e-01" cType="1" res="-2.4923016130924225e-01" rms="2.3055578768253326e-01" purity="7.2682105004787445e-02" nType="0">
            <Node pos="l" depth="3" NCoef="0" IVar="7" Cut="2.3462210595607758e-01" cType="1" res="-1.7775978147983551e-01" rms="3.5925477743148804e-01" purity="1.9841478765010834e-01" nType="0">
              <Node pos="l" depth="4" NCoef="0" IVar="-1" Cut="0.0000000000000000e+00" cType="1" res="-5.6728501804172993e-03" rms="4.6390646696090698e-01" purity="4.3046730756759644e-01" nType="-99"/>
              <Node pos="r" depth="4" NCoef="0" IVar="-1" Cut="0.0000000000000000e+00" cType="1" res="-2.3055473342537880e-02" rms="2.7215149998664856e-01" purity="8.4422007203102112e-02" nType="-99"/>
            </Node>
            <Node pos="r" depth="3" NCoef="0" IVar="8" Cut="5.4852598905563354e-01" cType="1" res="-2.7759575843811035e-01" rms="1.4211693406105042e-01" purity="2.2780535742640495e-02" nType="0">
              <Node pos="l" depth="4" NCoef="0" IVar="-1" Cut="0.0000000000000000e+00" cType="1" res="-2.4251835420727730e-02" rms="2.3235425353050232e-01" purity="6.4526394009590149e-02" nType="-99"/>
              <Node pos="r" depth="4" NCoef="0" IVar="-1" Cut="0.0000000000000000e+00" cType="1" res="-2.7032993733882904e-02" rms="9.0987615287303925e-02" purity="8.4334462881088257e-03" nType="-99"/>
            </Node>
          </Node>
          <Node pos="r" depth="2" NCoef="0" IVar="3" Cut="1.9890906289219856e-02" cType="1" res="1.7101455479860306e-02" rms="3.9764276146888733e-01" purity="6.2808233499526978e-01" nType="0">
            <Node pos="l" depth="3" NCoef="0" IVar="-1" Cut="0.0000000000000000e+00" cType="1" res="3.5216484218835831e-02" rms="3.2275322079658508e-01" purity="8.2549941539764404e-01" nType="-99"/>
            <Node pos="r" depth="3" NCoef="0" IVar="-1" Cut="0.0000000000000000e+00" cType="1" res="-1.7660928890109062e-02" rms="4.2786028981208801e-01" purity="3.5814672708511353e-01" nType="-99"/>
          </Node>
        </Node>
        <Node pos="r" depth="1" NCoef="0" IVar="0" Cut="1.6469003677368164e+01" cType="1" res="5.4398953914642334e-02" rms="1.8887746334075928e-01" purity="9.3674314022064209e-01" nType="0">
          <Node pos="l" depth="2" NCoef="0" IVar="-1" Cut="0.0000000000000000e+00" cType="1" res="-1.3285970315337181e-02" rms="4.3483778834342957e-01" purity="5.3905940055847168e-01" nType="-99"/>
          <Node pos="r" depth="2" NCoef="0" IVar="6" Cut="8.7984687089920044e-01" cType="1" res="6.4539976418018341e-02" rms="1.5283393859863281e-01" purity="9.6459859609603882e-01" nType="0">
            <Node pos="l" depth="3" NCoef="0" IVar="-1" Cut="0.0000000000000000e+00" cType="1" res="2.5759600102901459e-03" rms="3.3305528759956360e-01" purity="7.8825718164443970e-01" nType="-99"/>
            <Node pos="r" depth="3" NCoef="0" IVar="4" Cut="1.3745290227234364e-02" cType="1" res="6.9241441786289215e-02" rms="1.2502503395080566e-01" purity="9.7959077358245850e-01" nType="0">
              <Node pos="l" depth="4" NCoef="0" IVar="-1" Cut="0.0000000000000000e+00" cType="1" res="6.8730592727661133e-02" rms="1.1209235340356827e-01" purity="9.8452568054199219e-01" nType="-99"/>
              <Node pos="r" depth="4" NCoef="0" IVar="-1" Cut="0.0000000000000000e+00" cType="1" res="2.8066469356417656e-02" rms="2.2479094564914703e-01" purity="9.2283755540847778e-01" nType="-99"/>
            </Node>
          </Node>
        </Node>
      </Node>
    </BinaryTree>
    <BinaryTree type="DecisionTree" boostWeight="1.0000000000000000e+00" itree="15">
      <Node pos="s" depth="0" NCoef="0" IVar="7" Cut="2.3462210595607758e-01" cType="1" res="-9.2988193035125732e-02" rms="2.6848593354225159e-01" purity="5.0013643503189087e-01" nType="0">
        <Node pos="l" depth="1" NCoef="0" IVar="8" Cut="5.5223858356475830e-01" cType="1" res="9.2613324522972107e-03" rms="2.5527164340019226e-01" purity="7.8277021646499634e-01" nType="0">
          <Node pos="l" depth="2" NCoef="0" IVar="7" Cut="1.2256360054016113e-01" cType="1" res="4.3543677777051926e-02" rms="2.3587805032730103e-01" purity="8.7600392103195190e-01" nType="0">
            <Node pos="l" depth="3" NCoef="0" IVar="0" Cut="1.6541721343994141e+01" cType="1" res="6.0957767069339752e-02" rms="1.9889691472053528e-01" purity="9.3416118621826172e-01" nType="0">
              <Node pos="l" depth="4" NCoef="0" IVar="-1" Cut="0.0000000000000000e+00" cType="1" res="-4.0562171489000320e-03" rms="4.4371712207794189e-01" purity="5.5704772472381592e-01" nType="-99"/>
              <Node pos="r" depth="4" NCoef="0" IVar="-1" Cut="0.0000000000000000e+00" cType="1" res="5.3709905594587326e-02" rms="1.6282317042350769e-01" purity="9.6388107538223267e-01" nType="-99"/>
            </Node>
            <Node pos="r" depth="3" NCoef="0" IVar="-1" Cut="0.0000000000000000e+00" cType="1" res="-1.2587981298565865e-02" rms="4.0832540392875671e-01" purity="3.8760995864868164e-01" nType="-99"/>
          </Node>
          <Node pos="r" depth="2" NCoef="0" IVar="-1" Cut="0.0000000000000000e+00" cType="1" res="-2.3567043244838715e-02" rms="2.5565701723098755e-01" purity="1.2258801609277725e-01" nType="-99"/>
        </Node>
        <Node pos="r" depth="1" NCoef="0" IVar="5" Cut="6.4951491355895996e+00" cType="1" res="-2.5074663758277893e-01" rms="2.0431499183177948e-01" purity="6.4067184925079346e-02" nType="0">
          <Node pos="l" depth="2" NCoef="0" IVar="9" Cut="1.6322736740112305e+00" cType="1" res="-2.6336330175399780e-01" rms="1.6739179193973541e-01" purity="3.1256403774023056e-02" nType="0">
            <Node pos="l" depth="3" NCoef="0" IVar="3" Cut="8.7561465799808502e-02" cType="1" res="-2.3622462153434753e-01" rms="2.4589560925960541e-01" purity="6.9931708276271820e-02" nType="0">
              <Node pos="l" depth="4" NCoef="0" IVar="-1" Cut="0.0000000000000000e+00" cType="1" res="-1.8992174416780472e-02" rms="3.2303348183631897e-01" purity="1.3015620410442352e-01" nType="-99"/>
              <Node pos="r" depth="4" NCoef="0" IVar="-1" Cut="0.0000000000000000e+00" cType="1" res="-2.5290243327617645e-02" rms="1.8304435908794403e-01" purity="3.5878892987966537e-02" nType="-99"/>
            </Node>
            <Node pos="r" depth="3" NCoef="0" IVar="9" Cut="3.0262050628662109e+00" cType="1" res="-2.7812471985816956e-01" rms="9.8762787878513336e-02" purity="1.0219973511993885e-02" nType="0">
              <Node pos="l" depth="4" NCoef="0" IVar="-1" Cut="0.0000000000000000e+00" cType="1" res="-2.5773499161005020e-02" rms="1.5931761264801025e-01" purity="2.7536585927009583e-02" nType="-99"/>
              <Node pos="r" depth="4" NCoef="0" IVar="-1" Cut="0.0000000000000000e+00" cType="1" res="-2.6992430910468102e-02" rms="6.6724307835102081e-02" purity="4.3907053768634796e-03" nType="-99"/>
            </Node>
          </Node>
          <Node pos="r" depth="2" NCoef="0" IVar="-1" Cut="0.0000000000000000e+00" cType="1" res="-1.2614773586392403e-02" rms="4.3020072579383850e-01" purity="4.6953123807907104e-01" nType="-99"/>
        </Node>
      </Node>
    </BinaryTree>
    <BinaryTree type="DecisionTree" boostWeight="1.0000000000000000e+00" itree="16">
      <Node pos="s" depth="0" NCoef="0" IVar="6" Cut="8.3404195308685303e-01" cType="1" res="-9.1488681733608246e-02" rms="2.6347854733467102e-01" purity="5.0032854080200195e-01" nType="0">
        <Node pos="l" depth="1" NCoef="0" IVar="5" Cut="6.3739948272705078e+00" cType="1" res="-1.9911529123783112e-01" rms="2.6796028017997742e-01" purity="1.4538568258285522e-01" nType="0">
          <Node pos="l" depth="2" NCoef="0" IVar="2" Cut="1.1194030046463013e+00" cType="1" res="-2.2965990006923676e-01" rms="2.3036371171474457e-01" purity="7.4794702231884003e-02" nType="0">
            <Node pos="l" depth="3" NCoef="0" IVar="8" Cut="1.7412875592708588e-01" cType="1" res="-1.2783440947532654e-01" rms="3.7114882469177246e-01" purity="2.3745246231555939e-01" nType="0">
              <Node pos="l" depth="4" NCoef="0" IVar="-1" Cut="0.0000000000000000e+00" cType="1" res="-4.6604950912296772e-03" rms="4.4255062937736511e-01" purity="4.0061107277870178e-01" nType="-99"/>
              <Node pos="r" depth="4" NCoef="0" IVar="-1" Cut="0.0000000000000000e+00" cType="1" res="-1.9416436553001404e-02" rms="3.0371937155723572e-01" purity="1.3361304998397827e-01" nType="-99"/>
            </Node>
            <Node pos="r" depth="3" NCoef="0" IVar="8" Cut="1.8407958745956421e-01" cType="1" res="-2.4809104204177856e-01" rms="1.8847428262233734e-01" purity="4.5352492481470108e-02" nType="0">
              <Node pos="l" depth="4" NCoef="0" IVar="-1" Cut="0.0000000000000000e+00" cType="1" res="-1.9998576492071152e-02" rms="3.1867799162864685e-01" purity="1.4299269020557404e-01" nType="-99"/>
              <Node pos="r" depth="4" NCoef="0" IVar="-1" Cut="0.0000000000000000e+00" cType="1" res="-2.5737671181559563e-02" rms="1.3373611867427826e-01" purity="2.0496588200330734e-02" nType="-99"/>
            </Node>
          </Node>
          <Node pos="r" depth="2" NCoef="0" IVar="9" Cut="1.3532432317733765e+00" cType="1" res="1.9284794107079506e-02" rms="3.8909399509429932e-01" purity="6.5012538433074951e-01" nType="0">
            <Node pos="l" depth="3" NCoef="0" IVar="-1" Cut="0.0000000000000000e+00" cType="1" res="3.1687859445810318e-02" rms="3.3227160573005676e-01" purity="8.1451976299285889e-01" nType="-99"/>
            <Node pos="r" depth="3" NCoef="0" IVar="-1" Cut="0.0000000000000000e+00" cType="1" res="-1.6863843426108360e-02" rms="4.1184067726135254e-01" purity="4.1679552197456360e-01" nType="-99"/>
          </Node>
        </Node>
        <Node pos="r" depth="1" NCoef="0" IVar="10" Cut="-5.6142797470092773e+00" cType="1" res="4.0968980640172958e-02" rms="1.8624894320964813e-01" purity="9.3716186285018921e-01" nType="0">
          <Node pos="l" depth="2" NCoef="0" IVar="7" Cut="6.3038952648639679e-02" cType="1" res="4.9451559782028198e-02" rms="1.5996891260147095e-01" purity="9.6201980113983154e-01" nType="0">
            <Node pos="l" depth="3" NCoef="0" IVar="6" Cut="9.4338011741638184e-01" cType="1" res="5.3718708455562592e-02" rms="1.2220820784568787e-01" purity="9.8194098472595215e-01" nType="0">
              <Node pos="l" depth="4" NCoef="0" IVar="-1" Cut="0.0000000000000000e+00" cType="1" res="3.5885486751794815e-02" rms="1.9273121654987335e-01" purity="9.5223271846771240e-01" nType="-99"/>
              <Node pos="r" depth="4" NCoef="0" IVar="-1" Cut="0.0000000000000000e+00" cType="1" res="6.9461964070796967e-02" rms="9.6205048263072968e-02" purity="9.8950791358947754e-01" nType="-99"/>
            </Node>
            <Node pos="r" depth="3" NCoef="0" IVar="-1" Cut="0.0000000000000000e+00" cType="1" res="3.0956275295466185e-03" rms="3.4459877014160156e-01" purity="7.8485488891601562e-01" nType="-99"/>
          </Node>
          <Node pos="r" depth="2" NCoef="0" IVar="-1" Cut="0.0000000000000000e+00" cType="1" res="-1.3725912198424339e-02" rms="3.9049604535102844e-01" purity="5.6939053535461426e-01" nType="-99"/>
        </Node>
      </Node>
    </BinaryTree>
    <BinaryTree type="DecisionTree" boostWeight="1.0000000000000000e+00" itree="17">
      <Node pos="s" depth="0" NCoef="0" IVar="7" Cut="1.7133484780788422e-01" cType="1" res="-9.0279892086982727e-02" rms="2.5898143649101257e-01" purity="4.9950748682022095e-01" nType="0">
        <Node pos="l" depth="1" NCoef="0" IVar="8" Cut="6.1691510677337646e-01" cType="1" res="2.0224275067448616e-02" rms="2.3430955410003662e-01" purity="8.4030032157897949e-01" nType="0">
          <Node pos="l" depth="2" NCoef="0" IVar="0" Cut="1.5869485855102539e+01" cType="1" res="4.1302893310785294e-02" rms="2.1962517499923706e-01" purity="9.0301191806793213e-01" nType="0">
            <Node pos="l" depth="3" NCoef="0" IVar="-1" Cut="0.0000000000000000e+00" cType="1" res="-1.0469820350408554e-02" rms="4.3530544638633728e-01" purity="4.6484348177909851e-01" nType="-99"/>
            <Node pos="r" depth="3" NCoef="0" IVar="4" Cut="3.7959992885589600e-02" cType="1" res="5.1336664706468582e-02" rms="1.8683649599552155e-01" purity="9.4037836790084839e-01" nType="0">
              <Node pos="l" depth="4" NCoef="0" IVar="-1" Cut="0.0000000000000000e+00" cType="1" res="4.4618695974349976e-02" rms="1.6863001883029938e-01" purity="9.5616012811660767e-01" nType="-99"/>
              <Node pos="r" depth="4" NCoef="0" IVar="-1" Cut="0.0000000000000000e+00" cType="1" res="-4.1648484766483307e-03" rms="3.7458804249763489e-01" purity="6.7020612955093384e-01" nType="-99"/>
            </Node>
          </Node>
          <Node pos="r" depth="2" NCoef="0" IVar="-1" Cut="0.0000000000000000e+00" cType="1" res="-2.2625235840678215e-02" rms="2.6209688186645508e-01" purity="1.3538394868373871e-01" nType="-99"/>
        </Node>
        <Node pos="r" depth="1" NCoef="0" IVar="5" Cut="5.3791589736938477e+00" cType="1" res="-2.2670102119445801e-01" rms="2.2002357244491577e-01" purity="7.8787222504615784e-02" nType="0">
          <Node pos="l" depth="2" NCoef="0" IVar="8" Cut="1.9402974843978882e-01" cType="1" res="-2.4356788396835327e-01" rms="1.7455372214317322e-01" purity="3.6026395857334137e-02" nType="0">
            <Node pos="l" depth="3" NCoef="0" IVar="-1" Cut="0.0000000000000000e+00" cType="1" res="-2.0693462342023849e-02" rms="2.9927593469619751e-01" purity="1.1332989484071732e-01" nType="-99"/>
            <Node pos="r" depth="3" NCoef="0" IVar="3" Cut="6.9651417434215546e-02" cType="1" res="-2.5482809543609619e-01" rms="1.1235398054122925e-01" purity="1.3415907509624958e-02" nType="0">
              <Node pos="l" depth="4" NCoef="0" IVar="-1" Cut="0.0000000000000000e+00" cType="1" res="-2.4839095771312714e-02" rms="1.5463119745254517e-01" purity="2.6349764317274094e-02" nType="-99"/>
              <Node pos="r" depth="4" NCoef="0" IVar="-1" Cut="0.0000000000000000e+00" cType="1" res="-2.6075929403305054e-02" rms="8.2198634743690491e-02" purity="6.7700105719268322e-03" nType="-99"/>
            </Node>
          </Node>
          <Node pos="r" depth="2" NCoef="0" IVar="-1" Cut="0.0000000000000000e+00" cType="1" res="-1.3672179542481899e-02" rms="3.9625194668769836e-01" purity="3.7482598423957825e-01" nType="-99"/>
        </Node>
      </Node>
    </BinaryTree>
    <BinaryTree type="DecisionTree" boostWeight="1.0000000000000000e+00" itree="18">
      <Node pos="s" depth="0" NCoef="0" IVar="7" Cut="1.7223522067070007e-01" cType="1" res="-8.8086478412151337e-02" rms="2.5471094250679016e-01" purity="5.0001937150955200e-01" nType="0">
        <Node pos="l" depth="1" NCoef="0" IVar="8" Cut="6.0198980569839478e-01" cType="1" res="1.6396190971136093e-02" rms="2.3216690123081207e-01" purity="8.4001362323760986e-01" nType="0">
          <Node pos="l" depth="2" NCoef="0" IVar="10" Cut="-5.4996137619018555e+00" cType="1" res="3.6705899983644485e-02" rms="2.1765410900115967e-01" purity="9.0443861484527588e-01" nType="0">
            <Node pos="l" depth="3" NCoef="0" IVar="3" Cut="3.5805482417345047e-02" cType="1" res="4.4189546257257462e-02" rms="2.0149624347686768e-01" purity="9.2622637748718262e-01" nType="0">
              <Node pos="l" depth="4" NCoef="0" IVar="-1" Cut="0.0000000000000000e+00" cType="1" res="3.6866243928670883e-02" rms="1.8194888532161713e-01" purity="9.4652271270751953e-01" nType="-99"/>
              <Node pos="r" depth="4" NCoef="0" IVar="-1" Cut="0.0000000000000000e+00" cType="1" res="-6.0212360695004463e-03" rms="4.0843504667282104e-01" purity="5.6524491310119629e-01" nType="-99"/>
            </Node>
            <Node pos="r" depth="3" NCoef="0" IVar="-1" Cut="0.0000000000000000e+00" cType="1" res="-1.5456794761121273e-02" rms="3.8949462771415710e-01" purity="5.0490516424179077e-01" nType="-99"/>
          </Node>
          <Node pos="r" depth="2" NCoef="0" IVar="-1" Cut="0.0000000000000000e+00" cType="1" res="-2.1693136543035507e-02" rms="2.6780045032501221e-01" purity="1.4143981039524078e-01" nType="-99"/>
        </Node>
        <Node pos="r" depth="1" NCoef="0" IVar="5" Cut="5.3791589736938477e+00" cType="1" res="-2.1761041879653931e-01" rms="2.1948812901973724e-01" purity="7.8538961708545685e-02" nType="0">
          <Node pos="l" depth="2" NCoef="0" IVar="8" Cut="1.9402982294559479e-01" cType="1" res="-2.3395548760890961e-01" rms="1.7423395812511444e-01" purity="3.5885319113731384e-02" nType="0">
            <Node pos="l" depth="3" NCoef="0" IVar="-1" Cut="0.0000000000000000e+00" cType="1" res="-2.0107053220272064e-02" rms="2.9945892095565796e-01" purity="1.1335187405347824e-01" nType="-99"/>
            <Node pos="r" depth="3" NCoef="0" IVar="3" Cut="4.9751009792089462e-02" cType="1" res="-2.4499371647834778e-01" rms="1.1195828765630722e-01" purity="1.3314869254827499e-02" nType="0">
              <Node pos="l" depth="4" NCoef="0" IVar="-1" Cut="0.0000000000000000e+00" cType="1" res="-2.4338219314813614e-02" rms="1.5793709456920624e-01" purity="2.7542440220713615e-02" nType="-99"/>
              <Node pos="r" depth="4" NCoef="0" IVar="-1" Cut="0.0000000000000000e+00" cType="1" res="-2.5658622384071350e-02" rms="8.5570707917213440e-02" purity="7.4069635011255741e-03" nType="-99"/>
            </Node>
          </Node>
          <Node pos="r" depth="2" NCoef="0" IVar="-1" Cut="0.0000000000000000e+00" cType="1" res="-1.3013696298003197e-02" rms="3.9628008008003235e-01" purity="3.7434110045433044e-01" nType="-99"/>
        </Node>
      </Node>
    </BinaryTree>
    <BinaryTree type="DecisionTree" boostWeight="1.0000000000000000e+00" itree="19">
      <Node pos="s" depth="0" NCoef="0" IVar="6" Cut="8.4082460403442383e-01" cType="1" res="-8.6105979979038239e-02" rms="2.5097113847732544e-01" purity="4.9962016940116882e-01" nType="0">
        <Node pos="l" depth="1" NCoef="0" IVar="5" Cut="1.0762211799621582e+01" cType="1" res="-1.7775951325893402e-01" rms="2.6187705993652344e-01" purity="1.4944408833980560e-01" nType="0">
          <Node pos="l" depth="2" NCoef="0" IVar="8" Cut="2.6368150115013123e-01" cType="1" res="-1.9541294872760773e-01" rms="2.4904724955558777e-01" purity="1.0640040040016174e-01" nType="0">
            <Node pos="l" depth="3" NCoef="0" IVar="3" Cut="5.9700239449739456e-02" cType="1" res="-1.2331167608499527e-01" rms="3.6289280652999878e-01" purity="2.6055145263671875e-01" nType="0">
              <Node pos="l" depth="4" NCoef="0" IVar="-1" Cut="0.0000000000000000e+00" cType="1" res="-5.0536151975393295e-03" rms="4.1742193698883057e-01" purity="4.2470487952232361e-01" nType="-99"/>
              <Node pos="r" depth="4" NCoef="0" IVar="-1" Cut="0.0000000000000000e+00" cType="1" res="-2.1426456049084663e-02" rms="2.7392283082008362e-01" purity="9.7748614847660065e-02" nType="-99"/>
            </Node>
            <Node pos="r" depth="3" NCoef="0" IVar="9" Cut="2.5479564666748047e+00" cType="1" res="-2.2831305861473083e-01" rms="1.6364839673042297e-01" purity="3.6060638725757599e-02" nType="0">
              <Node pos="l" depth="4" NCoef="0" IVar="-1" Cut="0.0000000000000000e+00" cType="1" res="-2.2134099155664444e-02" rms="2.2532223165035248e-01" purity="7.4770502746105194e-02" nType="-99"/>
              <Node pos="r" depth="4" NCoef="0" IVar="-1" Cut="0.0000000000000000e+00" cType="1" res="-2.5284266099333763e-02" rms="1.1655554920434952e-01" purity="1.5459360554814339e-02" nType="-99"/>
            </Node>
          </Node>
          <Node pos="r" depth="2" NCoef="0" IVar="-1" Cut="0.0000000000000000e+00" cType="1" res="3.9041668176651001e-02" rms="2.9040041565895081e-01" purity="8.8433551788330078e-01" nType="-99"/>
        </Node>
        <Node pos="r" depth="1" NCoef="0" IVar="0" Cut="1.6541723251342773e+01" cType="1" res="2.9440395534038544e-02" rms="1.7886926233768463e-01" purity="9.4108241796493530e-01" nType="0">
          <Node pos="l" depth="2" NCoef="0" IVar="-1" Cut="0.0000000000000000e+00" cType="1" res="-1.2973666191101074e-02" rms="4.2394828796386719e-01" purity="5.4915267229080200e-01" nType="-99"/>
          <Node pos="r" depth="2" NCoef="0" IVar="3" Cut="1.8989209085702896e-02" cType="1" res="3.7347886711359024e-02" rms="1.4416638016700745e-01" purity="9.6826410293579102e-01" nType="0">
            <Node pos="l" depth="3" NCoef="0" IVar="0" Cut="2.3050941467285156e+01" cType="1" res="4.0396992117166519e-02" rms="1.2300199270248413e-01" purity="9.8008960485458374e-01" nType="0">
              <Node pos="l" depth="4" NCoef="0" IVar="-1" Cut="0.0000000000000000e+00" cType="1" res="9.4026885926723480e-03" rms="2.7750462293624878e-01" purity="8.8374900817871094e-01" nType="-99"/>
              <Node pos="r" depth="4" NCoef="0" IVar="-1" Cut="0.0000000000000000e+00" cType="1" res="6.1497546732425690e-02" rms="1.0366303473711014e-01" purity="9.8686105012893677e-01" nType="-99"/>
            </Node>
            <Node pos="r" depth="3" NCoef="0" IVar="-1" Cut="0.0000000000000000e+00" cType="1" res="-2.0141040440648794e-03" rms="3.1657525897026062e-01" purity="7.9781627655029297e-01" nType="-99"/>
          </Node>
        </Node>
      </Node>
    </BinaryTree>
    <BinaryTree type="DecisionTree" boostWeight="1.0000000000000000e+00" itree="20">
      <Node pos="s" depth="0" NCoef="0" IVar="7" Cut="2.3462210595607758e-01" cType="1" res="-8.4004156291484833e-02" rms="2.4761043488979340e-01" purity="5.0010997056961060e-01" nType="0">
        <Node pos="l" depth="1" NCoef="0" IVar="8" Cut="5.2736300230026245e-01" cType="1" res="-4.6287998557090759e-03" rms="2.4227267503738403e-01" purity="7.8240823745727539e-01" nType="0">
          <Node pos="l" depth="2" NCoef="0" IVar="3" Cut="4.9729835242033005e-02" cType="1" res="2.3097790777683258e-02" rms="2.2798536717891693e-01" purity="8.7934404611587524e-01" nType="0">
            <Node pos="l" depth="3" NCoef="0" IVar="10" Cut="-5.5874967575073242e+00" cType="1" res="3.3262796700000763e-02" rms="2.0875903964042664e-01" purity="9.1538846492767334e-01" nType="0">
              <Node pos="l" depth="4" NCoef="0" IVar="-1" Cut="0.0000000000000000e+00" cType="1" res="2.8216408565640450e-02" rms="1.9334466755390167e-01" purity="9.3476247787475586e-01" nType="-99"/>
              <Node pos="r" depth="4" NCoef="0" IVar="-1" Cut="0.0000000000000000e+00" cType="1" res="-1.2710059061646461e-02" rms="3.7565991282463074e-01" purity="5.7372647523880005e-01" nType="-99"/>
            </Node>
            <Node pos="r" depth="3" NCoef="0" IVar="-1" Cut="0.0000000000000000e+00" cType="1" res="-1.5703642740845680e-02" rms="3.9256396889686584e-01" purity="3.3190190792083740e-01" nType="-99"/>
          </Node>
          <Node pos="r" depth="2" NCoef="0" IVar="-1" Cut="0.0000000000000000e+00" cType="1" res="-2.1132200956344604e-02" rms="2.5285536050796509e-01" purity="1.3038563728332520e-01" nType="-99"/>
        </Node>
        <Node pos="r" depth="1" NCoef="0" IVar="5" Cut="6.2881369590759277e+00" cType="1" res="-2.0650596916675568e-01" rms="2.0153465867042542e-01" purity="6.4432524144649506e-02" nType="0">
          <Node pos="l" depth="2" NCoef="0" IVar="9" Cut="1.5929572582244873e+00" cType="1" res="-2.1719314157962799e-01" rms="1.6553381085395813e-01" purity="3.0765954405069351e-02" nType="0">
            <Node pos="l" depth="3" NCoef="0" IVar="3" Cut="9.1542258858680725e-02" cType="1" res="-1.9264702498912811e-01" rms="2.4453966319561005e-01" purity="6.9506160914897919e-02" nType="0">
              <Node pos="l" depth="4" NCoef="0" IVar="-1" Cut="0.0000000000000000e+00" cType="1" res="-1.6408590599894524e-02" rms="3.1980639696121216e-01" purity="1.2759745121002197e-01" nType="-99"/>
              <Node pos="r" depth="4" NCoef="0" IVar="-1" Cut="0.0000000000000000e+00" cType="1" res="-2.3213081061840057e-02" rms="1.8159201741218567e-01" purity="3.5272665321826935e-02" nType="-99"/>
            </Node>
            <Node pos="r" depth="3" NCoef="0" IVar="9" Cut="2.9636189937591553e+00" cType="1" res="-2.3002836108207703e-01" rms="9.9902831017971039e-02" purity="1.0508647188544273e-02" nType="0">
              <Node pos="l" depth="4" NCoef="0" IVar="-1" Cut="0.0000000000000000e+00" cType="1" res="-2.3698665201663971e-02" rms="1.6178478300571442e-01" purity="2.8538623824715614e-02" nType="-99"/>
              <Node pos="r" depth="4" NCoef="0" IVar="-1" Cut="0.0000000000000000e+00" cType="1" res="-2.5203546509146690e-02" rms="6.7213647067546844e-02" purity="4.4615129008889198e-03" nType="-99"/>
            </Node>
          </Node>
          <Node pos="r" depth="2" NCoef="0" IVar="-1" Cut="0.0000000000000000e+00" cType="1" res="-1.1202918365597725e-02" rms="4.1877844929695129e-01" purity="4.4905370473861694e-01" nType="-99"/>
        </Node>
      </Node>
    </BinaryTree>
    <BinaryTree type="DecisionTree" boostWeight="1.0000000000000000e+00" itree="21">
      <Node pos="s" depth="0" NCoef="0" IVar="6" Cut="7.4559867382049561e-01" cType="1" res="-8.1713356077671051e-02" rms="2.4480688571929932e-01" purity="5.0038486719131470e-01" nType="0">
        <Node pos="l" depth="1" NCoef="0" IVar="5" Cut="9.4401502609252930e+00" cType="1" res="-1.7866471409797668e-01" rms="2.3246158659458160e-01" purity="1.0596241056919098e-01" nType="0">
          <Node pos="l" depth="2" NCoef="0" IVar="9" Cut="1.7513207197189331e+00" cType="1" res="-1.9419535994529724e-01" rms="2.1388779580593109e-01" purity="6.2725670635700226e-02" nType="0">
            <Node pos="l" depth="3" NCoef="0" IVar="5" Cut="4.6986675262451172e+00" cType="1" res="-1.5312856435775757e-01" rms="2.9933020472526550e-01" purity="1.3214692473411560e-01" nType="0">
              <Node pos="l" depth="4" NCoef="0" IVar="-1" Cut="0.0000000000000000e+00" cType="1" res="-2.0029939711093903e-02" rms="2.5507158041000366e-01" purity="8.2211934030056000e-02" nType="-99"/>
              <Node pos="r" depth="4" NCoef="0" IVar="-1" Cut="0.0000000000000000e+00" cType="1" res="-9.8557793535292149e-04" rms="4.2731449007987976e-01" purity="3.7339612841606140e-01" nType="-99"/>
            </Node>
            <Node pos="r" depth="3" NCoef="0" IVar="9" Cut="2.8393971920013428e+00" cType="1" res="-2.1994443237781525e-01" rms="1.2858086824417114e-01" purity="1.9198233261704445e-02" nType="0">
              <Node pos="l" depth="4" NCoef="0" IVar="-1" Cut="0.0000000000000000e+00" cType="1" res="-2.2015569731593132e-02" rms="2.0711386203765869e-01" purity="5.4277885705232620e-02" nType="-99"/>
              <Node pos="r" depth="4" NCoef="0" IVar="-1" Cut="0.0000000000000000e+00" cType="1" res="-2.4759402498602867e-02" rms="9.9393613636493683e-02" purity="1.0493177920579910e-02" nType="-99"/>
            </Node>
          </Node>
          <Node pos="r" depth="2" NCoef="0" IVar="-1" Cut="0.0000000000000000e+00" cType="1" res="1.9730793312191963e-02" rms="3.4810933470726013e-01" purity="8.1801217794418335e-01" nType="-99"/>
        </Node>
        <Node pos="r" depth="1" NCoef="0" IVar="8" Cut="4.5771083235740662e-01" cType="1" res="8.4704319015145302e-03" rms="2.2030568122863770e-01" purity="8.6727517843246460e-01" nType="0">
          <Node pos="l" depth="2" NCoef="0" IVar="3" Cut="3.9751257747411728e-02" cType="1" res="2.4085590615868568e-02" rms="2.0137611031532288e-01" purity="9.2502230405807495e-01" nType="0">
            <Node pos="l" depth="3" NCoef="0" IVar="0" Cut="1.6541799545288086e+01" cType="1" res="3.0157886445522308e-02" rms="1.7876854538917542e-01" purity="9.5194166898727417e-01" nType="0">
              <Node pos="l" depth="4" NCoef="0" IVar="-1" Cut="0.0000000000000000e+00" cType="1" res="-6.3927075825631618e-03" rms="4.3994390964508057e-01" purity="6.3803112506866455e-01" nType="-99"/>
              <Node pos="r" depth="4" NCoef="0" IVar="-1" Cut="0.0000000000000000e+00" cType="1" res="4.1569005697965622e-02" rms="1.4708916842937469e-01" purity="9.7144299745559692e-01" nType="-99"/>
            </Node>
            <Node pos="r" depth="3" NCoef="0" IVar="-1" Cut="0.0000000000000000e+00" cType="1" res="-1.0859183035790920e-02" rms="4.1537669301033020e-01" purity="4.7780999541282654e-01" nType="-99"/>
          </Node>
          <Node pos="r" depth="2" NCoef="0" IVar="-1" Cut="0.0000000000000000e+00" cType="1" res="-1.8815765157341957e-02" rms="3.2521286606788635e-01" purity="1.8970586359500885e-01" nType="-99"/>
        </Node>
      </Node>
    </BinaryTree>
    <BinaryTree type="DecisionTree" boostWeight="1.0000000000000000e+00" itree="22">
      <Node pos="s" depth="0" NCoef="0" IVar="6" Cut="8.4823101758956909e-01" cType="1" res="-7.9686924815177917e-02" rms="2.4179795384407043e-01" purity="4.9992826581001282e-01" nType="0">
        <Node pos="l" depth="1" NCoef="0" IVar="5" Cut="5.3811206817626953e+00" cType="1" res="-1.5828523039817810e-01" rms="2.5769633054733276e-01" purity="1.5522857010364532e-01" nType="0">
          <Node pos="l" depth="2" NCoef="0" IVar="2" Cut="1.0447760820388794e+00" cType="1" res="-1.8803350627422333e-01" rms="2.1609425544738770e-01" purity="7.1383841335773468e-02" nType="0">
            <Node pos="l" depth="3" NCoef="0" IVar="-1" Cut="0.0000000000000000e+00" cType="1" res="-1.3210131786763668e-02" rms="3.5486924648284912e-01" purity="2.3694977164268494e-01" nType="-99"/>
            <Node pos="r" depth="3" NCoef="0" IVar="8" Cut="1.4925368130207062e-01" cType="1" res="-2.0290295779705048e-01" rms="1.7478887736797333e-01" purity="4.0593203157186508e-02" nType="0">
              <Node pos="l" depth="4" NCoef="0" IVar="-1" Cut="0.0000000000000000e+00" cType="1" res="-1.8170243129134178e-02" rms="3.0609649419784546e-01" purity="1.3826011121273041e-01" nType="-99"/>
              <Node pos="r" depth="4" NCoef="0" IVar="-1" Cut="0.0000000000000000e+00" cType="1" res="-2.3854924365878105e-02" rms="1.3176536560058594e-01" purity="2.0776061341166496e-02" nType="-99"/>
            </Node>
          </Node>
          <Node pos="r" depth="2" NCoef="0" IVar="9" Cut="1.7114505767822266e+00" cType="1" res="-1.7027502879500389e-02" rms="3.6857324838638306e-01" purity="5.5335968732833862e-01" nType="0">
            <Node pos="l" depth="3" NCoef="0" IVar="3" Cut="1.1935346759855747e-02" cType="1" res="7.5535945594310760e-02" rms="3.5108402371406555e-01" purity="7.2944444417953491e-01" nType="0">
              <Node pos="l" depth="4" NCoef="0" IVar="-1" Cut="0.0000000000000000e+00" cType="1" res="4.4158261269330978e-02" rms="2.8163352608680725e-01" purity="8.8057619333267212e-01" nType="-99"/>
              <Node pos="r" depth="4" NCoef="0" IVar="-1" Cut="0.0000000000000000e+00" cType="1" res="-5.3319934522733092e-04" rms="4.1923445463180542e-01" purity="5.1239156723022461e-01" nType="-99"/>
            </Node>
            <Node pos="r" depth="3" NCoef="0" IVar="-1" Cut="0.0000000000000000e+00" cType="1" res="-2.0573768764734268e-02" rms="3.4270721673965454e-01" purity="2.5075775384902954e-01" nType="-99"/>
          </Node>
        </Node>
        <Node pos="r" depth="1" NCoef="0" IVar="0" Cut="1.6785331726074219e+01" cType="1" res="2.1631741896271706e-02" rms="1.7320688068866730e-01" purity="9.4427007436752319e-01" nType="0">
          <Node pos="l" depth="2" NCoef="0" IVar="-1" Cut="0.0000000000000000e+00" cType="1" res="-1.1251116171479225e-02" rms="4.1811302304267883e-01" purity="5.6500464677810669e-01" nType="-99"/>
          <Node pos="r" depth="2" NCoef="0" IVar="7" Cut="7.5242862105369568e-02" cType="1" res="2.8134945780038834e-02" rms="1.3833098113536835e-01" purity="9.7104537487030029e-01" nType="0">
            <Node pos="l" depth="3" NCoef="0" IVar="4" Cut="7.6275081373751163e-03" cType="1" res="3.0889807268977165e-02" rms="1.1365119367837906e-01" purity="9.8392379283905029e-01" nType="0">
              <Node pos="l" depth="4" NCoef="0" IVar="-1" Cut="0.0000000000000000e+00" cType="1" res="5.7979963719844818e-02" rms="1.0190280526876450e-01" purity="9.8761332035064697e-01" nType="-99"/>
              <Node pos="r" depth="4" NCoef="0" IVar="-1" Cut="0.0000000000000000e+00" cType="1" res="1.7750317230820656e-02" rms="1.8436136841773987e-01" purity="9.5287418365478516e-01" nType="-99"/>
            </Node>
            <Node pos="r" depth="3" NCoef="0" IVar="-1" Cut="0.0000000000000000e+00" cType="1" res="-3.8116832729429007e-03" rms="3.3286809921264648e-01" purity="7.7742946147918701e-01" nType="-99"/>
          </Node>
        </Node>
      </Node>
    </BinaryTree>
    <BinaryTree type="DecisionTree" boostWeight="1.0000000000000000e+00" itree="23">
      <Node pos="s" depth="0" NCoef="0" IVar="6" Cut="8.4082460403442383e-01" cType="1" res="-7.7789954841136932e-02" rms="2.3888134956359863e-01" purity="4.9999335408210754e-01" nType="0">
        <Node pos="l" depth="1" NCoef="0" IVar="5" Cut="6.1618657112121582e+00" cType="1" res="-1.5331338346004486e-01" rms="2.5447615981101990e-01" purity="1.4982613921165466e-01" nType="0">
          <Node pos="l" depth="2" NCoef="0" IVar="2" Cut="1.1194030046463013e+00" cType="1" res="-1.7717920243740082e-01" rms="2.2238528728485107e-01" purity="7.5689159333705902e-02" nType="0">
            <Node pos="l" depth="3" NCoef="0" IVar="9" Cut="1.3543975353240967e+00" cType="1" res="-9.6925593912601471e-02" rms="3.5833698511123657e-01" purity="2.4235586822032928e-01" nType="0">
              <Node pos="l" depth="4" NCoef="0" IVar="-1" Cut="0.0000000000000000e+00" cType="1" res="2.6334985159337521e-03" rms="4.2877453565597534e-01" purity="4.4286960363388062e-01" nType="-99"/>
              <Node pos="r" depth="4" NCoef="0" IVar="-1" Cut="0.0000000000000000e+00" cType="1" res="-1.9069777801632881e-02" rms="2.8670105338096619e-01" purity="1.2166695296764374e-01" nType="-99"/>
            </Node>
            <Node pos="r" depth="3" NCoef="0" IVar="8" Cut="1.7412932217121124e-01" cType="1" res="-1.9190277159214020e-01" rms="1.8322765827178955e-01" purity="4.5111969113349915e-02" nType="0">
              <Node pos="l" depth="4" NCoef="0" IVar="-1" Cut="0.0000000000000000e+00" cType="1" res="-1.7143469303846359e-02" rms="3.1228774785995483e-01" purity="1.4492118358612061e-01" nType="-99"/>
              <Node pos="r" depth="4" NCoef="0" IVar="-1" Cut="0.0000000000000000e+00" cType="1" res="-2.3417642340064049e-02" rms="1.3314124941825867e-01" purity="2.1128371357917786e-02" nType="-99"/>
            </Node>
          </Node>
          <Node pos="r" depth="2" NCoef="0" IVar="3" Cut="1.9899887964129448e-02" cType="1" res="2.1358483936637640e-03" rms="3.6953839659690857e-01" purity="6.3271510601043701e-01" nType="0">
            <Node pos="l" depth="3" NCoef="0" IVar="-1" Cut="0.0000000000000000e+00" cType="1" res="2.5663904845714569e-02" rms="3.0636483430862427e-01" purity="8.2664597034454346e-01" nType="-99"/>
            <Node pos="r" depth="3" NCoef="0" IVar="-1" Cut="0.0000000000000000e+00" cType="1" res="-1.4989115297794342e-02" rms="4.1309398412704468e-01" purity="3.5881718993186951e-01" nType="-99"/>
          </Node>
        </Node>
        <Node pos="r" depth="1" NCoef="0" IVar="10" Cut="-5.6238307952880859e+00" cType="1" res="1.7296629026532173e-02" rms="1.7650724947452545e-01" purity="9.4086599349975586e-01" nType="0">
          <Node pos="l" depth="2" NCoef="0" IVar="8" Cut="2.1889732778072357e-01" cType="1" res="2.3750491440296173e-02" rms="1.5283094346523285e-01" purity="9.6472448110580444e-01" nType="0">
            <Node pos="l" depth="3" NCoef="0" IVar="11" Cut="-4.8320145606994629e+00" cType="1" res="2.6991553604602814e-02" rms="1.2836305797100067e-01" purity="9.7915327548980713e-01" nType="0">
              <Node pos="l" depth="4" NCoef="0" IVar="-1" Cut="0.0000000000000000e+00" cType="1" res="4.5889228582382202e-02" rms="1.2243928760290146e-01" purity="9.8141092061996460e-01" nType="-99"/>
              <Node pos="r" depth="4" NCoef="0" IVar="-1" Cut="0.0000000000000000e+00" cType="1" res="1.3535509351640940e-03" rms="1.9107754528522491e-01" purity="9.4762521982192993e-01" nType="-99"/>
            </Node>
            <Node pos="r" depth="3" NCoef="0" IVar="-1" Cut="0.0000000000000000e+00" cType="1" res="-6.2619904056191444e-03" rms="3.4710654616355896e-01" purity="7.5611490011215210e-01" nType="-99"/>
          </Node>
          <Node pos="r" depth="2" NCoef="0" IVar="-1" Cut="0.0000000000000000e+00" cType="1" res="-1.3902637176215649e-02" rms="3.7121078372001648e-01" purity="5.8417510986328125e-01" nType="-99"/>
        </Node>
      </Node>
    </BinaryTree>
    <BinaryTree type="DecisionTree" boostWeight="1.0000000000000000e+00" itree="24">
      <Node pos="s" depth="0" NCoef="0" IVar="6" Cut="7.3713403940200806e-01" cType="1" res="-7.5633019208908081e-02" rms="2.3634892702102661e-01" purity="5.0015050172805786e-01" nType="0">
        <Node pos="l" depth="1" NCoef="0" IVar="5" Cut="8.9693460464477539e+00" cType="1" res="-1.6060683131217957e-01" rms="2.2543890774250031e-01" purity="1.0356311500072479e-01" nType="0">
          <Node pos="l" depth="2" NCoef="0" IVar="9" Cut="1.8309215307235718e+00" cType="1" res="-1.7418034374713898e-01" rms="2.0735558867454529e-01" purity="5.8701962232589722e-02" nType="0">
            <Node pos="l" depth="3" NCoef="0" IVar="5" Cut="4.5536398887634277e+00" cType="1" res="-1.3919310271739960e-01" rms="2.9041710495948792e-01" purity="1.2277844548225403e-01" nType="0">
              <Node pos="l" depth="4" NCoef="0" IVar="-1" Cut="0.0000000000000000e+00" cType="1" res="-1.9152080640196800e-02" rms="2.4743518233299255e-01" purity="7.6890118420124054e-02" nType="-99"/>
              <Node pos="r" depth="4" NCoef="0" IVar="-1" Cut="0.0000000000000000e+00" cType="1" res="-2.2419705055654049e-03" rms="4.1658744215965271e-01" purity="3.3558544516563416e-01" nType="-99"/>
            </Node>
            <Node pos="r" depth="3" NCoef="0" IVar="10" Cut="-5.5204529762268066e+00" cType="1" res="-1.9708409905433655e-01" rms="1.2084779143333435e-01" purity="1.6755480319261551e-02" nType="0">
              <Node pos="l" depth="4" NCoef="0" IVar="-1" Cut="0.0000000000000000e+00" cType="1" res="-2.2048972547054291e-02" rms="1.7062237858772278e-01" purity="3.5509217530488968e-02" nType="-99"/>
              <Node pos="r" depth="4" NCoef="0" IVar="-1" Cut="0.0000000000000000e+00" cType="1" res="-2.4078689515590668e-02" rms="8.5092976689338684e-02" purity="7.3459353297948837e-03" nType="-99"/>
            </Node>
          </Node>
          <Node pos="r" depth="2" NCoef="0" IVar="-1" Cut="0.0000000000000000e+00" cType="1" res="1.2339218519628048e-02" rms="3.5352557897567749e-01" purity="7.9818117618560791e-01" nType="-99"/>
        </Node>
        <Node pos="r" depth="1" NCoef="0" IVar="8" Cut="4.7761023044586182e-01" cType="1" res="1.1199699947610497e-03" rms="2.1908560395240784e-01" purity="8.5836988687515259e-01" nType="0">
          <Node pos="l" depth="2" NCoef="0" IVar="3" Cut="4.1785903275012970e-02" cType="1" res="1.5964582562446594e-02" rms="2.0319163799285889e-01" purity="9.1892552375793457e-01" nType="0">
            <Node pos="l" depth="3" NCoef="0" IVar="9" Cut="3.3034904003143311e+00" cType="1" res="2.2124649956822395e-02" rms="1.8118213117122650e-01" purity="9.4908773899078369e-01" nType="0">
              <Node pos="l" depth="4" NCoef="0" IVar="-1" Cut="0.0000000000000000e+00" cType="1" res="2.7887593954801559e-02" rms="1.6958852112293243e-01" purity="9.5841914415359497e-01" nType="-99"/>
              <Node pos="r" depth="4" NCoef="0" IVar="-1" Cut="0.0000000000000000e+00" cType="1" res="-1.4072643592953682e-02" rms="3.1317740678787231e-01" purity="7.8959923982620239e-01" nType="-99"/>
            </Node>
            <Node pos="r" depth="3" NCoef="0" IVar="-1" Cut="0.0000000000000000e+00" cType="1" res="-1.1430659331381321e-02" rms="4.0828922390937805e-01" purity="4.3475320935249329e-01" nType="-99"/>
          </Node>
          <Node pos="r" depth="2" NCoef="0" IVar="-1" Cut="0.0000000000000000e+00" cType="1" res="-1.8772121518850327e-02" rms="3.0558809638023376e-01" purity="1.6707749664783478e-01" nType="-99"/>
        </Node>
      </Node>
    </BinaryTree>
    <BinaryTree type="DecisionTree" boostWeight="1.0000000000000000e+00" itree="25">
      <Node pos="s" depth="0" NCoef="0" IVar="6" Cut="8.5624057054519653e-01" cType="1" res="-7.3480516672134399e-02" rms="2.3423446714878082e-01" purity="4.9951887130737305e-01" nType="0">
        <Node pos="l" depth="1" NCoef="0" IVar="5" Cut="1.0760250091552734e+01" cType="1" res="-1.4061176776885986e-01" rms="2.5429168343544006e-01" purity="1.6133300960063934e-01" nType="0">
          <Node pos="l" depth="2" NCoef="0" IVar="8" Cut="2.5870642066001892e-01" cType="1" res="-1.5473507344722748e-01" rms="2.4576067924499512e-01" purity="1.1632394045591354e-01" nType="0">
